<?xml version="1.0"?>
<opencv_storage>
<cascade>
  <stageType>BOOST</stageType>
  <featureType>HAAR</featureType>
  <height>26</height>
  <width>26</width>
  <stageParams>
    <boostType>GAB</boostType>
    <minHitRate>9.9900001287460327e-01</minHitRate>
    <maxFalseAlarm>2.7000001072883606e-01</maxFalseAlarm>
    <weightTrimRate>9.4999999999999996e-01</weightTrimRate>
    <maxDepth>1</maxDepth>
    <maxWeakCount>100</maxWeakCount></stageParams>
  <featureParams>
    <maxCatCount>0</maxCatCount>
    <featSize>1</featSize>
    <mode>BASIC</mode></featureParams>
  <stageNum>5</stageNum>
  <stages>
    <!-- stage 0 -->
    <_>
      <maxWeakCount>4</maxWeakCount>
      <stageThreshold>-2.6113731861114502e+00</stageThreshold>
      <weakClassifiers>
        <_>
          <internalNodes>
            0 -1 5 3.7699586153030396e-01</internalNodes>
          <leafValues>
            -9.9252617359161377e-01 6.6666668653488159e-01</leafValues></_>
        <_>
          <internalNodes>
            0 -1 3 4.0654227137565613e-01</internalNodes>
          <leafValues>
            -9.6751475334167480e-01 1.6518510878086090e-01</leafValues></_>
        <_>
          <internalNodes>
            0 -1 17 7.0764601696282625e-04</internalNodes>
          <leafValues>
            -9.1140341758728027e-01 3.8523361086845398e-01</leafValues></_>
        <_>
          <internalNodes>
            0 -1 19 -8.3072911947965622e-03</internalNodes>
          <leafValues>
            -9.8914498090744019e-01 2.6007115840911865e-01</leafValues></_></weakClassifiers></_>
    <!-- stage 1 -->
    <_>
      <maxWeakCount>4</maxWeakCount>
      <stageThreshold>-2.3261241912841797e+00</stageThreshold>
      <weakClassifiers>
        <_>
          <internalNodes>
            0 -1 6 3.2383030652999878e-01</internalNodes>
          <leafValues>
            -9.9500250816345215e-01 1.1111111193895340e-01</leafValues></_>
        <_>
          <internalNodes>
            0 -1 4 2.8004211187362671e-01</internalNodes>
          <leafValues>
            -9.7690856456756592e-01 -1.1070232139900327e-03</leafValues></_>
        <_>
          <internalNodes>
            0 -1 13 -2.1989500522613525e-01</internalNodes>
          <leafValues>
            5.4040485620498657e-01 -9.0330159664154053e-01</leafValues></_>
        <_>
          <internalNodes>
            0 -1 1 1.9679428637027740e-01</internalNodes>
          <leafValues>
            -8.9461809396743774e-01 6.0020363330841064e-01</leafValues></_></weakClassifiers></_>
    <!-- stage 2 -->
    <_>
      <maxWeakCount>3</maxWeakCount>
      <stageThreshold>-2.0327181816101074e+00</stageThreshold>
      <weakClassifiers>
        <_>
          <internalNodes>
            0 -1 12 -7.6581083238124847e-02</internalNodes>
          <leafValues>
            -3.8461539149284363e-01 -9.9399095773696899e-01</leafValues></_>
        <_>
          <internalNodes>
            0 -1 14 -5.9200286865234375e-02</internalNodes>
          <leafValues>
            -3.0445242300629616e-02 -9.6384716033935547e-01</leafValues></_>
        <_>
          <internalNodes>
            0 -1 16 2.5681173428893089e-03</internalNodes>
          <leafValues>
            -9.8741120100021362e-01 -7.4879907071590424e-02</leafValues></_></weakClassifiers></_>
    <!-- stage 3 -->
    <_>
      <maxWeakCount>4</maxWeakCount>
      <stageThreshold>-2.5182843208312988e+00</stageThreshold>
      <weakClassifiers>
        <_>
          <internalNodes>
            0 -1 2 3.5729187726974487e-01</internalNodes>
          <leafValues>
            -9.9250185489654541e-01 -4.7368422150611877e-01</leafValues></_>
        <_>
          <internalNodes>
            0 -1 7 3.6072838306427002e-01</internalNodes>
          <leafValues>
            -9.6364814043045044e-01 -1.4354541897773743e-01</leafValues></_>
        <_>
          <internalNodes>
            0 -1 0 -5.7081645354628563e-03</internalNodes>
          <leafValues>
            1.6640792787075043e-01 -8.7740641832351685e-01</leafValues></_>
        <_>
          <internalNodes>
            0 -1 15 4.2426243424415588e-02</internalNodes>
          <leafValues>
            -7.2854208946228027e-01 6.1232697963714600e-01</leafValues></_></weakClassifiers></_>
    <!-- stage 4 -->
    <_>
      <maxWeakCount>5</maxWeakCount>
      <stageThreshold>-2.7249073982238770e+00</stageThreshold>
      <weakClassifiers>
        <_>
          <internalNodes>
            0 -1 8 9.9799908697605133e-02</internalNodes>
          <leafValues>
            -9.9054491519927979e-01 1.</leafValues></_>
        <_>
          <internalNodes>
            0 -1 10 2.7268344163894653e-01</internalNodes>
          <leafValues>
            -9.7033751010894775e-01 -2.9654183983802795e-01</leafValues></_>
        <_>
          <internalNodes>
            0 -1 18 -6.5238624811172485e-03</internalNodes>
          <leafValues>
            -2.8252351284027100e-01 -9.8268359899520874e-01</leafValues></_>
        <_>
          <internalNodes>
            0 -1 9 2.8937477618455887e-03</internalNodes>
          <leafValues>
            -9.0082061290740967e-01 2.3490600287914276e-01</leafValues></_>
        <_>
          <internalNodes>
            0 -1 11 8.7052591145038605e-02</internalNodes>
          <leafValues>
            -8.9165097475051880e-01 4.1931915283203125e-01</leafValues></_></weakClassifiers></_></stages>
  <features>
    <_>
      <rects>
        <_>
          0 0 8 2 -1.</_>
        <_>
          0 1 8 1 2.</_></rects>
      <tilted>0</tilted></_>
    <_>
      <rects>
        <_>
          0 4 16 21 -1.</_>
        <_>
          8 4 8 21 2.</_></rects>
      <tilted>0</tilted></_>
    <_>
      <rects>
        <_>
          0 10 22 9 -1.</_>
        <_>
          11 10 11 9 2.</_></rects>
      <tilted>0</tilted></_>
    <_>
      <rects>
        <_>
          0 10 22 12 -1.</_>
        <_>
          11 10 11 12 2.</_></rects>
      <tilted>0</tilted></_>
    <_>
      <rects>
        <_>
          0 11 18 13 -1.</_>
        <_>
          9 11 9 13 2.</_></rects>
      <tilted>0</tilted></_>
    <_>
      <rects>
        <_>
          0 11 20 10 -1.</_>
        <_>
          10 11 10 10 2.</_></rects>
      <tilted>0</tilted></_>
    <_>
      <rects>
        <_>
          0 11 22 9 -1.</_>
        <_>
          11 11 11 9 2.</_></rects>
      <tilted>0</tilted></_>
    <_>
      <rects>
        <_>
          0 11 22 10 -1.</_>
        <_>
          11 11 11 10 2.</_></rects>
      <tilted>0</tilted></_>
    <_>
      <rects>
        <_>
          1 1 6 14 -1.</_>
        <_>
          1 1 3 7 2.</_>
        <_>
          4 8 3 7 2.</_></rects>
      <tilted>0</tilted></_>
    <_>
      <rects>
        <_>
          2 1 4 3 -1.</_>
        <_>
          4 1 2 3 2.</_></rects>
      <tilted>0</tilted></_>
    <_>
      <rects>
        <_>
          2 13 20 9 -1.</_>
        <_>
          12 13 10 9 2.</_></rects>
      <tilted>0</tilted></_>
    <_>
      <rects>
        <_>
          3 0 21 14 -1.</_>
        <_>
          3 7 21 7 2.</_></rects>
      <tilted>0</tilted></_>
    <_>
      <rects>
        <_>
          3 20 18 6 -1.</_>
        <_>
          3 20 9 3 2.</_>
        <_>
          12 23 9 3 2.</_></rects>
      <tilted>0</tilted></_>
    <_>
      <rects>
        <_>
          4 13 22 7 -1.</_>
        <_>
          15 13 11 7 2.</_></rects>
      <tilted>0</tilted></_>
    <_>
      <rects>
        <_>
          4 20 16 6 -1.</_>
        <_>
          4 20 8 3 2.</_>
        <_>
          12 23 8 3 2.</_></rects>
      <tilted>0</tilted></_>
    <_>
      <rects>
        <_>
          6 16 20 6 -1.</_>
        <_>
          6 16 10 3 2.</_>
        <_>
          16 19 10 3 2.</_></rects>
      <tilted>0</tilted></_>
    <_>
      <rects>
        <_>
          12 22 14 2 -1.</_>
        <_>
          12 22 7 1 2.</_>
        <_>
          19 23 7 1 2.</_></rects>
      <tilted>0</tilted></_>
    <_>
      <rects>
        <_>
          18 4 2 2 -1.</_>
        <_>
          18 4 1 1 2.</_>
        <_>
          19 5 1 1 2.</_></rects>
      <tilted>0</tilted></_>
    <_>
      <rects>
        <_>
          20 0 6 6 -1.</_>
        <_>
          23 0 3 6 2.</_></rects>
      <tilted>0</tilted></_>
    <_>
      <rects>
        <_>
          22 0 3 2 -1.</_>
        <_>
          23 0 1 2 2.</_></rects>
      <tilted>0</tilted></_></features></cascade>
</opencv_storage>
