<?xml version="1.0"?>
<opencv_storage>
<cascade>
  <stageType>BOOST</stageType>
  <featureType>LBP</featureType>
  <height>24</height>
  <width>24</width>
  <stageParams>
    <boostType>GAB</boostType>
    <minHitRate>9.9900001287460327e-01</minHitRate>
    <maxFalseAlarm>5.0000000000000000e-01</maxFalseAlarm>
    <weightTrimRate>9.4999999999999996e-01</weightTrimRate>
    <maxDepth>1</maxDepth>
    <maxWeakCount>100</maxWeakCount></stageParams>
  <featureParams>
    <maxCatCount>256</maxCatCount>
    <featSize>1</featSize></featureParams>
  <stageNum>10</stageNum>
  <stages>
    <!-- stage 0 -->
    <_>
      <maxWeakCount>6</maxWeakCount>
      <stageThreshold>-1.6055225133895874e+00</stageThreshold>
      <weakClassifiers>
        <_>
          <internalNodes>
            0 -1 46 -183447424 -74247936 -720119399 -11331279 -268382032
            -71595392 -81669957 -4476501</internalNodes>
          <leafValues>
            -8.3785194158554077e-01 7.4072051048278809e-01</leafValues></_>
        <_>
          <internalNodes>
            0 -1 36 -774647311 -539651983 -1811852463 -6995499
            -375811590 -75363920 310383097 -1091829632</internalNodes>
          <leafValues>
            -7.1893262863159180e-01 6.1807399988174438e-01</leafValues></_>
        <_>
          <internalNodes>
            0 -1 64 -706871362 1433738248 -646348867 1431688632
            -33572166 -581451847 -1610612822 -581707973</internalNodes>
          <leafValues>
            -6.2255990505218506e-01 6.7208248376846313e-01</leafValues></_>
        <_>
          <internalNodes>
            0 -1 49 -371264527 -741257199 319885361 1599934801
            -1870622215 2024472601 268441600 -11593715</internalNodes>
          <leafValues>
            -7.2680014371871948e-01 4.4499808549880981e-01</leafValues></_>
        <_>
          <internalNodes>
            0 -1 57 867742392 -1154337896 -1288556271 -1693224048
            -67240727 -1182796807 976876537 -1680008439</internalNodes>
          <leafValues>
            -5.3473770618438721e-01 6.0960251092910767e-01</leafValues></_>
        <_>
          <internalNodes>
            0 -1 85 -20065034 -246306582 -1065296207 -780058613
            -230639446 -527915902 -2142729525 -1734113110</internalNodes>
          <leafValues>
            -4.5463070273399353e-01 6.6356152296066284e-01</leafValues></_></weakClassifiers></_>
    <!-- stage 1 -->
    <_>
      <maxWeakCount>7</maxWeakCount>
      <stageThreshold>-1.7330524921417236e+00</stageThreshold>
      <weakClassifiers>
        <_>
          <internalNodes>
            0 -1 50 -570565153 -581567147 -570818819 1431695829
            -805326913 -537002019 -52430853 -69</internalNodes>
          <leafValues>
            -5.9460616111755371e-01 8.0551624298095703e-01</leafValues></_>
        <_>
          <internalNodes>
            0 -1 33 -9186414 -608463054 1604295858 -541865005 -876428088
            -622093690 -817121814 -67382317</internalNodes>
          <leafValues>
            -5.5672454833984375e-01 5.4825282096862793e-01</leafValues></_>
        <_>
          <internalNodes>
            0 -1 48 -27541825 -264708236 -32931 1439815063 -668289350
            -534708854 -8388801 -731513249</internalNodes>
          <leafValues>
            -4.7466084361076355e-01 5.4473274946212769e-01</leafValues></_>
        <_>
          <internalNodes>
            0 -1 54 -741898614 -551305222 -1090536260 1571663663
            -17978113 -16814081 -134352946 -134240305</internalNodes>
          <leafValues>
            -4.0135240554809570e-01 5.7531875371932983e-01</leafValues></_>
        <_>
          <internalNodes>
            0 -1 60 -67125313 -12603153 1339635669 1606262269 197962424
            -1098249160 50334848 -15779158</internalNodes>
          <leafValues>
            -5.2154928445816040e-01 4.8022651672363281e-01</leafValues></_>
        <_>
          <internalNodes>
            0 -1 26 -617351183 254249409 -948179435 1065484099 -96411456
            -139855367 -142314349 2101866691</internalNodes>
          <leafValues>
            -5.4985392093658447e-01 4.2643097043037415e-01</leafValues></_>
        <_>
          <internalNodes>
            0 -1 82 -68552678 1410502880 1074454608 1358958592
            1891911115 1073794192 -749156102 1078182095</internalNodes>
          <leafValues>
            -5.8726137876510620e-01 3.8171315193176270e-01</leafValues></_></weakClassifiers></_>
    <!-- stage 2 -->
    <_>
      <maxWeakCount>9</maxWeakCount>
      <stageThreshold>-1.9441452026367188e+00</stageThreshold>
      <weakClassifiers>
        <_>
          <internalNodes>
            0 -1 24 1358683647 271776698 1577045983 -604243969
            1577050111 -604774401 -536912677 -262149</internalNodes>
          <leafValues>
            -6.2459695339202881e-01 7.0044332742691040e-01</leafValues></_>
        <_>
          <internalNodes>
            0 -1 49 -8390669 -10493967 1899451313 -2228779 -604312577
            -265251 1923092688 -1225451</internalNodes>
          <leafValues>
            -6.6548013687133789e-01 4.4818758964538574e-01</leafValues></_>
        <_>
          <internalNodes>
            0 -1 39 2108662400 -573778200 1929966412 -71316506
            -489765416 -811875169 -155583638 -1281</internalNodes>
          <leafValues>
            -5.2238208055496216e-01 5.3237068653106689e-01</leafValues></_>
        <_>
          <internalNodes>
            0 -1 64 -570425429 1566440728 -637960807 -715262531 -17986
            2144861977 -326 -41943237</internalNodes>
          <leafValues>
            -4.0223181247711182e-01 5.8678686618804932e-01</leafValues></_>
        <_>
          <internalNodes>
            0 -1 36 871084339 2147302705 -1127058895 -46835753
            2146374459 -2158978 380109689 -553769360</internalNodes>
          <leafValues>
            -5.4566526412963867e-01 3.7885043025016785e-01</leafValues></_>
        <_>
          <internalNodes>
            0 -1 5 -1357777455 864802169 -1326252059 -1357908353
            -1367709014 -1372689046 -1946634786 780367295</internalNodes>
          <leafValues>
            -4.4819325208663940e-01 4.6460160613059998e-01</leafValues></_>
        <_>
          <internalNodes>
            0 -1 47 1603491696 1607941395 1562710832 -537158830
            1110793170 1602175387 1457928498 -537134085</internalNodes>
          <leafValues>
            -5.3304862976074219e-01 3.9369842410087585e-01</leafValues></_>
        <_>
          <internalNodes>
            0 -1 34 -878653667 -44261379 1586724851 -248187535
            -2103399906 -1402672785 -688947393 -58917061</internalNodes>
          <leafValues>
            -4.4923809170722961e-01 4.3427810072898865e-01</leafValues></_>
        <_>
          <internalNodes>
            0 -1 52 -183311632 -5263208 -541404677 -71371526 -15156488
            -4281982 2097217520 -82790728</internalNodes>
          <leafValues>
            -6.7825555801391602e-01 2.6742261648178101e-01</leafValues></_></weakClassifiers></_>
    <!-- stage 3 -->
    <_>
      <maxWeakCount>10</maxWeakCount>
      <stageThreshold>-1.5871206521987915e+00</stageThreshold>
      <weakClassifiers>
        <_>
          <internalNodes>
            0 -1 50 -570565155 -707428899 -262145 -170527243 -570445825
            -1 -16385 -21</internalNodes>
          <leafValues>
            -5.8028477430343628e-01 7.3219764232635498e-01</leafValues></_>
        <_>
          <internalNodes>
            0 -1 20 926416753 -1892680909 -46145545 -1079515181
            2123169492 -278003748 -340861188 -1358430411</internalNodes>
          <leafValues>
            -5.0254207849502563e-01 4.9819907546043396e-01</leafValues></_>
        <_>
          <internalNodes>
            0 -1 53 -1366835243 -2122249 1475901425 1434261269 639683816
            -10945860 -33271628 -15043276</internalNodes>
          <leafValues>
            -5.9920352697372437e-01 3.8481664657592773e-01</leafValues></_>
        <_>
          <internalNodes>
            0 -1 21 -320285909 -103737551 -1090519205 -47065231
            711999311 -58916993 -1695137985 -50790401</internalNodes>
          <leafValues>
            -4.6251383423805237e-01 4.7030079364776611e-01</leafValues></_>
        <_>
          <internalNodes>
            0 -1 14 -1141560559 1026502569 553855359 673001087
            -1266080736 -537961521 1414205789 -1366626721</internalNodes>
          <leafValues>
            -4.7138398885726929e-01 4.3026539683341980e-01</leafValues></_>
        <_>
          <internalNodes>
            0 -1 59 -1188694727 454426013 1431385397 2040000885
            -1313211588 -1241989380 -777481955 -588475083</internalNodes>
          <leafValues>
            -4.8634597659111023e-01 3.7926736474037170e-01</leafValues></_>
        <_>
          <internalNodes>
            0 -1 78 941103741 -1124237722 2063515087 -1427129162
            -1409532966 -281023491 -1376452764 511970657</internalNodes>
          <leafValues>
            -5.9000933170318604e-01 3.2939186692237854e-01</leafValues></_>
        <_>
          <internalNodes>
            0 -1 4 757620177 45546493 -676159521 781672437 -1612731603
            -2030637313 1071299710 750783848</internalNodes>
          <leafValues>
            -6.0597246885299683e-01 2.9706835746765137e-01</leafValues></_>
        <_>
          <internalNodes>
            0 -1 40 1607567882 -357138 -1413480449 -83899444 -268443763
            -16924675 -213539 -16385</internalNodes>
          <leafValues>
            -4.3511340022087097e-01 4.4982585310935974e-01</leafValues></_>
        <_>
          <internalNodes>
            0 -1 12 -1082435567 -1078651183 -1486914049 518173860
            -555805479 -1365578 -1088552828 -1911422720</internalNodes>
          <leafValues>
            -4.4162470102310181e-01 4.2684543132781982e-01</leafValues></_></weakClassifiers></_>
    <!-- stage 4 -->
    <_>
      <maxWeakCount>10</maxWeakCount>
      <stageThreshold>-2.0240433216094971e+00</stageThreshold>
      <weakClassifiers>
        <_>
          <internalNodes>
            0 -1 51 -581581619 -33686019 -706912931 -581054124
            -1140858881 -1073750017 -67510785 -262145</internalNodes>
          <leafValues>
            -6.1529546976089478e-01 6.7660909891128540e-01</leafValues></_>
        <_>
          <internalNodes>
            0 -1 8 293461471 17429793 -138805509 -1112936665 -789591810
            730586863 -325 -1156850005</internalNodes>
          <leafValues>
            -4.2517605423927307e-01 5.7771372795104980e-01</leafValues></_>
        <_>
          <internalNodes>
            0 -1 56 -78523952 923482384 1066656176 533678347 -206636072
            757576291 -1276919600 324761499</internalNodes>
          <leafValues>
            -6.4970040321350098e-01 2.9894641041755676e-01</leafValues></_>
        <_>
          <internalNodes>
            0 -1 85 -78119682 -236271416 279494878 -783759360 -838303506
            -2138513270 -2139059973 -1073026838</internalNodes>
          <leafValues>
            -4.7979629039764404e-01 3.8614654541015625e-01</leafValues></_>
        <_>
          <internalNodes>
            0 -1 26 -692846733 -542126687 -1835273 -3182747 -484050692
            -1737351 -13117957 -311955325</internalNodes>
          <leafValues>
            -3.6418020725250244e-01 5.1154929399490356e-01</leafValues></_>
        <_>
          <internalNodes>
            0 -1 36 832263091 -2122891 1491041139 -33596425 -155249669
            -1986016334 279189243 -1631966978</internalNodes>
          <leafValues>
            -4.5476585626602173e-01 3.9745265245437622e-01</leafValues></_>
        <_>
          <internalNodes>
            0 -1 71 -76169 -219492110 -1929642695 -642715481 -813794307
            -2132087058 -18093329 -2004157717</internalNodes>
          <leafValues>
            -3.5746881365776062e-01 5.2536857128143311e-01</leafValues></_>
        <_>
          <internalNodes>
            0 -1 0 1350572252 2140724632 1594791680 -33759560 2096387758
            -158402405 -303432705 -75792610</internalNodes>
          <leafValues>
            -4.9106192588806152e-01 3.3992093801498413e-01</leafValues></_>
        <_>
          <internalNodes>
            0 -1 60 -257 -16641 2147037157 1610463999 -75518792
            1073392944 -1719133144 -5264213</internalNodes>
          <leafValues>
            -3.2174351811408997e-01 5.0797551870346069e-01</leafValues></_>
        <_>
          <internalNodes>
            0 -1 65 -1247953639 286619129 289477937 1431662933
            -1115054210 281125656 819855197 1281669912</internalNodes>
          <leafValues>
            -5.5517393350601196e-01 2.9610624909400940e-01</leafValues></_></weakClassifiers></_>
    <!-- stage 5 -->
    <_>
      <maxWeakCount>10</maxWeakCount>
      <stageThreshold>-1.7214155197143555e+00</stageThreshold>
      <weakClassifiers>
        <_>
          <internalNodes>
            0 -1 10 -184746241 -655299680 -85991553 -69609677
            -1460077313 -50987597 -322973745 -16777221</internalNodes>
          <leafValues>
            -5.8575135469436646e-01 6.0809570550918579e-01</leafValues></_>
        <_>
          <internalNodes>
            0 -1 55 -572542790 -535105 814878896 -708841454 -3229121
            -1324387 -589133063 -713174353</internalNodes>
          <leafValues>
            -5.2371275424957275e-01 4.5799770951271057e-01</leafValues></_>
        <_>
          <internalNodes>
            0 -1 27 -536871950 -543435343 831478947 -11141166 1294683586
            -540553986 1602499490 -536886277</internalNodes>
          <leafValues>
            -5.0296449661254883e-01 3.9571273326873779e-01</leafValues></_>
        <_>
          <internalNodes>
            0 -1 79 -408753218 -134742070 -1341602590 -623846702
            -401551272 -492644716 -801062678 -1073680382</internalNodes>
          <leafValues>
            -5.5630105733871460e-01 3.6815437674522400e-01</leafValues></_>
        <_>
          <internalNodes>
            0 -1 23 -355734014 -137292822 2031186803 15176403
            -2096379864 -1421375041 -171803653 6804691</internalNodes>
          <leafValues>
            -6.2702834606170654e-01 3.1646424531936646e-01</leafValues></_>
        <_>
          <internalNodes>
            0 -1 37 776690935 -27529763 323170801 863445457 167792866
            436996397 1820351140 -16005107</internalNodes>
          <leafValues>
            -5.4842513799667358e-01 3.2103735208511353e-01</leafValues></_>
        <_>
          <internalNodes>
            0 -1 77 1995403926 2076831777 1073907740 -707790625
            -48499993 1619056768 -59319074 -976488022</internalNodes>
          <leafValues>
            -4.4864141941070557e-01 4.1869994997978210e-01</leafValues></_>
        <_>
          <internalNodes>
            0 -1 32 -1477968909 -1450765392 831897559 -1082801711
            2143611600 -1276859324 190447296 -548018670</internalNodes>
          <leafValues>
            -4.3326073884963989e-01 4.2612546682357788e-01</leafValues></_>
        <_>
          <internalNodes>
            0 -1 87 -632567058 -703927094 269380218 880928896 -862396278
            -2003907368 1141438718 -770708854</internalNodes>
          <leafValues>
            -4.0396603941917419e-01 4.2882156372070313e-01</leafValues></_>
        <_>
          <internalNodes>
            0 -1 31 2099247092 164606910 43731348 118813501 1883713241
            183121353 1335588340 41654738</internalNodes>
          <leafValues>
            -6.3104689121246338e-01 2.7574574947357178e-01</leafValues></_></weakClassifiers></_>
    <!-- stage 6 -->
    <_>
      <maxWeakCount>13</maxWeakCount>
      <stageThreshold>-1.6692010164260864e+00</stageThreshold>
      <weakClassifiers>
        <_>
          <internalNodes>
            0 -1 43 -184746241 -190513155 -25170273 -185204755 -20987905
            -1 -83902545 -1</internalNodes>
          <leafValues>
            -5.2428054809570313e-01 6.0026210546493530e-01</leafValues></_>
        <_>
          <internalNodes>
            0 -1 30 -1168647498 -10497025 -71232655 -216977135
            -629112132 -25107972 -61293895 -15868095</internalNodes>
          <leafValues>
            -4.7788518667221069e-01 3.9878398180007935e-01</leafValues></_>
        <_>
          <internalNodes>
            0 -1 29 -174104271 -1146094799 -1822851275 1974435679
            -889780976 -116717520 -1144041067 -358740717</internalNodes>
          <leafValues>
            -4.9538779258728027e-01 3.6501252651214600e-01</leafValues></_>
        <_>
          <internalNodes>
            0 -1 68 2113921018 -34603265 2147479519 -540930 -1107300098
            -18874377 -230686790 -321</internalNodes>
          <leafValues>
            -3.4702816605567932e-01 5.4702031612396240e-01</leafValues></_>
        <_>
          <internalNodes>
            0 -1 58 1565904976 -10652904 -99114991 -11727803 -43189088
            -1145196235 -362378396 -11757544</internalNodes>
          <leafValues>
            -6.4414346218109131e-01 2.1362192928791046e-01</leafValues></_>
        <_>
          <internalNodes>
            0 -1 70 -1820347621 301324540 276609586 286617629 -365373000
            -776677284 -1221789016 424537821</internalNodes>
          <leafValues>
            -5.0601059198379517e-01 2.9799520969390869e-01</leafValues></_>
        <_>
          <internalNodes>
            0 -1 13 -1879897317 -539649679 687832503 -1145177729
            2146467662 -730267801 614514347 -1473708037</internalNodes>
          <leafValues>
            -3.5014027357101440e-01 4.1520318388938904e-01</leafValues></_>
        <_>
          <internalNodes>
            0 -1 69 -700396950 -838875361 -1910369549 -201799136
            -647430907 -5778727 -1010762023 -918442684</internalNodes>
          <leafValues>
            -4.2695051431655884e-01 3.2971751689910889e-01</leafValues></_>
        <_>
          <internalNodes>
            0 -1 81 -92278189 -539427714 -2132213764 4244618 1189736554
            -1468991932 -927334674 -926685461</internalNodes>
          <leafValues>
            -3.5068461298942566e-01 4.2991751432418823e-01</leafValues></_>
        <_>
          <internalNodes>
            0 -1 6 1641248721 -1480362491 -1015392399 -1885385243
            134133481 -1107564595 792547804 -1884333057</internalNodes>
          <leafValues>
            -2.7345010638237000e-01 4.8537114262580872e-01</leafValues></_>
        <_>
          <internalNodes>
            0 -1 1 2136833500 -1649224810 -1970003414 184327668
            -1128546598 -292491789 -1148459281 -364485121</internalNodes>
          <leafValues>
            -3.6950686573982239e-01 3.8525414466857910e-01</leafValues></_>
        <_>
          <internalNodes>
            0 -1 44 747581401 -1615521536 1073100555 -80564800
            -553648659 -131586 2122216991 -1085276373</internalNodes>
          <leafValues>
            -3.5070726275444031e-01 4.1231587529182434e-01</leafValues></_>
        <_>
          <internalNodes>
            0 -1 2 -1607442507 -2120893583 -653003781 -282313887
            -1178657291 -1164713059 595525565 246678001</internalNodes>
          <leafValues>
            -5.3442168235778809e-01 2.7162089943885803e-01</leafValues></_></weakClassifiers></_>
    <!-- stage 7 -->
    <_>
      <maxWeakCount>13</maxWeakCount>
      <stageThreshold>-1.5729855298995972e+00</stageThreshold>
      <weakClassifiers>
        <_>
          <internalNodes>
            0 -1 66 -50 2013265919 -22222162 -82 -2097185 -1 -23090498
            -1</internalNodes>
          <leafValues>
            -5.0457894802093506e-01 5.8187228441238403e-01</leafValues></_>
        <_>
          <internalNodes>
            0 -1 17 1358159327 286453727 -537207045 -1153695817
            -572531201 -1078722581 -33566758 -1145307189</internalNodes>
          <leafValues>
            -3.8919246196746826e-01 4.9271678924560547e-01</leafValues></_>
        <_>
          <internalNodes>
            0 -1 27 -539502800 -537239632 -1654678528 -6423069 193022336
            -541110626 260376066 -274735213</internalNodes>
          <leafValues>
            -5.9502595663070679e-01 2.7253818511962891e-01</leafValues></_>
        <_>
          <internalNodes>
            0 -1 84 -167774210 -1286966450 1223226640 -45550934
            -658192278 -1062731744 -1069483798 -1073681694</internalNodes>
          <leafValues>
            -4.5247933268547058e-01 3.5102033615112305e-01</leafValues></_>
        <_>
          <internalNodes>
            0 -1 28 -22040888 1549648895 -1346670983 366329715
            -1361729398 -1593848905 -136374245 -319815953</internalNodes>
          <leafValues>
            -3.8736924529075623e-01 3.8750752806663513e-01</leafValues></_>
        <_>
          <internalNodes>
            0 -1 26 -1079512079 -542144021 1147895365 763453633
            2119560176 1999239785 -490744399 1090629701</internalNodes>
          <leafValues>
            -5.2253848314285278e-01 2.6928946375846863e-01</leafValues></_>
        <_>
          <internalNodes>
            0 -1 60 -1 -16641 2147057597 1577057534 -361912392
            -1074123416 1501564036 -5260630</internalNodes>
          <leafValues>
            -3.4477251768112183e-01 4.1761308908462524e-01</leafValues></_>
        <_>
          <internalNodes>
            0 -1 16 799404433 -1346429473 1708520245 -1048577 800707313
            788496374 1059189617 -1095763221</internalNodes>
          <leafValues>
            -3.2778730988502502e-01 4.3278175592422485e-01</leafValues></_>
        <_>
          <internalNodes>
            0 -1 80 -265414 -108881654 276873288 16781314 -180299550
            -798719840 -638854934 -805059461</internalNodes>
          <leafValues>
            -3.8562855124473572e-01 3.7217113375663757e-01</leafValues></_>
        <_>
          <internalNodes>
            0 -1 3 400420689 532544101 406253302 -1563633689 -67128
            -34603183 -1031798870 -1392550105</internalNodes>
          <leafValues>
            -3.5869303345680237e-01 3.9574676752090454e-01</leafValues></_>
        <_>
          <internalNodes>
            0 -1 86 -1050381 -376707360 -638780897 1498166400 -156250661
            -1807683442 1116011263 -879763253</internalNodes>
          <leafValues>
            -2.9974809288978577e-01 4.8260927200317383e-01</leafValues></_>
        <_>
          <internalNodes>
            0 -1 41 83820524 -10765313 2034514340 -71322142 -1365468198
            1510591209 -484775892 2145319855</internalNodes>
          <leafValues>
            -3.9159306883811951e-01 3.5850560665130615e-01</leafValues></_>
        <_>
          <internalNodes>
            0 -1 63 1406787024 -1275503630 -1982791646 -1854831757
            -1007324712 -676378234 -878659392 -1655704941</internalNodes>
          <leafValues>
            -4.5939218997955322e-01 3.1383919715881348e-01</leafValues></_></weakClassifiers></_>
    <!-- stage 8 -->
    <_>
      <maxWeakCount>13</maxWeakCount>
      <stageThreshold>-1.6792286634445190e+00</stageThreshold>
      <weakClassifiers>
        <_>
          <internalNodes>
            0 -1 18 -1074399016 -6 -16389 -5 -82 -5308417 -21 -1041</internalNodes>
          <leafValues>
            -4.9966645240783691e-01 5.8175158500671387e-01</leafValues></_>
        <_>
          <internalNodes>
            0 -1 75 1567817599 -4202625 -1632583876 -1880346650
            -33554433 1610469375 -268566532 -20806</internalNodes>
          <leafValues>
            -3.4895122051239014e-01 5.0584709644317627e-01</leafValues></_>
        <_>
          <internalNodes>
            0 -1 49 1431818739 -611498507 1945179889 -3287563
            -1665067141 1805321720 438702208 -9478835</internalNodes>
          <leafValues>
            -5.4947066307067871e-01 2.9301255941390991e-01</leafValues></_>
        <_>
          <internalNodes>
            0 -1 7 2088009343 -1724842085 -957578769 2072246719
            -590896930 1047789311 -643872113 -26022341</internalNodes>
          <leafValues>
            -4.1275545954704285e-01 4.0041145682334900e-01</leafValues></_>
        <_>
          <internalNodes>
            0 -1 83 -44698370 -251663738 -259655426 1971910860
            -1832860452 -402601752 -1006585682 1073793162</internalNodes>
          <leafValues>
            -4.0186598896980286e-01 3.5378918051719666e-01</leafValues></_>
        <_>
          <internalNodes>
            0 -1 35 -693021357 1932628915 937120658 -541330469 -7136938
            -1935195997 -225209510 -1142244741</internalNodes>
          <leafValues>
            -4.0783178806304932e-01 3.1552729010581970e-01</leafValues></_>
        <_>
          <internalNodes>
            0 -1 9 -1154533871 632283069 273888151 260407583 -2008211148
            -1812989701 1091178560 1845923687</internalNodes>
          <leafValues>
            -4.8224306106567383e-01 2.9236745834350586e-01</leafValues></_>
        <_>
          <internalNodes>
            0 -1 25 -11141285 -2109070 -963126798 -279620013 2136268758
            1536196627 1799404428 257757728</internalNodes>
          <leafValues>
            -4.2723602056503296e-01 3.1529396772384644e-01</leafValues></_>
        <_>
          <internalNodes>
            0 -1 64 503295882 1090034968 -250531368 1430566190
            -141838152 1497598601 -554725846 -598345958</internalNodes>
          <leafValues>
            -5.0184857845306396e-01 2.5533142685890198e-01</leafValues></_>
        <_>
          <internalNodes>
            0 -1 38 1129686016 785075015 1105309397 1547968445
            -249671870 -41696373 -309678097 2003144527</internalNodes>
          <leafValues>
            -5.0200945138931274e-01 2.5663942098617554e-01</leafValues></_>
        <_>
          <internalNodes>
            0 -1 62 -33556737 2109004028 -1918833048 -326828232
            1337872351 1492678132 1870183679 -272651522</internalNodes>
          <leafValues>
            -2.6108202338218689e-01 4.8695257306098938e-01</leafValues></_>
        <_>
          <internalNodes>
            0 -1 22 -1961438543 -5244675 -267963599 -268473539
            -1815577968 -876662691 391928499 788478143</internalNodes>
          <leafValues>
            -3.5386168956756592e-01 3.5810801386833191e-01</leafValues></_>
        <_>
          <internalNodes>
            0 -1 61 -86428143 425514999 925732571 -148921089 -1030384500
            847257850 -522192148 -1402083106</internalNodes>
          <leafValues>
            -3.5232385993003845e-01 3.5207629203796387e-01</leafValues></_></weakClassifiers></_>
    <!-- stage 9 -->
    <_>
      <maxWeakCount>14</maxWeakCount>
      <stageThreshold>-1.5037714242935181e+00</stageThreshold>
      <weakClassifiers>
        <_>
          <internalNodes>
            0 -1 42 -721420321 -588468338 -588775441 -1048577 -100663297
            -1 -33555201 -268435457</internalNodes>
          <leafValues>
            -4.0805745124816895e-01 6.2188255786895752e-01</leafValues></_>
        <_>
          <internalNodes>
            0 -1 76 1979709183 -134479889 1087163646 1356918270 -3249
            -206766358 -42993666 -68419862</internalNodes>
          <leafValues>
            -3.3412078022956848e-01 5.0777560472488403e-01</leafValues></_>
        <_>
          <internalNodes>
            0 -1 15 -1210113456 -2142357 -1998769099 -98571267 864770424
            -909152756 107877852 -42499</internalNodes>
          <leafValues>
            -4.5417526364326477e-01 3.6760687828063965e-01</leafValues></_>
        <_>
          <internalNodes>
            0 -1 36 286462755 -539002379 2123780965 -579381515
            -2139417869 -29253 346035505 -84408272</internalNodes>
          <leafValues>
            -5.6631863117218018e-01 2.3455359041690826e-01</leafValues></_>
        <_>
          <internalNodes>
            0 -1 11 -337119664 -72635622 415337913 -204504664
            -1566661378 -28056366 653216463 -9717173</internalNodes>
          <leafValues>
            -4.3657401204109192e-01 3.2579958438873291e-01</leafValues></_>
        <_>
          <internalNodes>
            0 -1 73 -186085713 -371852289 -1061105417 1678112707
            -69423100 -1109953870 -2140866850 -515769426</internalNodes>
          <leafValues>
            -4.0788289904594421e-01 3.1542500853538513e-01</leafValues></_>
        <_>
          <internalNodes>
            0 -1 52 -136381702 -204474168 -1087307783 -4325638 -13435142
            -4194349 -180289542 -12584742</internalNodes>
          <leafValues>
            -3.2248359918594360e-01 4.1712775826454163e-01</leafValues></_>
        <_>
          <internalNodes>
            0 -1 74 -100682946 74836992 -528036168 -1944290292
            -503336669 -1870871280 -892407134 -60031377</internalNodes>
          <leafValues>
            -3.7424468994140625e-01 3.5800063610076904e-01</leafValues></_>
        <_>
          <internalNodes>
            0 -1 19 223812625 -69523376 720894623 -1976610638 267407184
            -337697280 802463832 115277920</internalNodes>
          <leafValues>
            -5.5256253480911255e-01 2.3625189065933228e-01</leafValues></_>
        <_>
          <internalNodes>
            0 -1 72 -179306678 2101733825 -218065000 -754872320
            -1513688174 -1833188576 1890645026 1392709632</internalNodes>
          <leafValues>
            -4.1332367062568665e-01 2.9739898443222046e-01</leafValues></_>
        <_>
          <internalNodes>
            0 -1 67 -211100852 1818646981 -217755600 -1835016517
            -44200180 -1074996291 -91215972 -218121234</internalNodes>
          <leafValues>
            -4.1309371590614319e-01 3.0559045076370239e-01</leafValues></_>
        <_>
          <internalNodes>
            0 -1 57 -1311392784 -1684826366 463649179 1062237144
            -956535063 -1987979584 -1549492323 1543082757</internalNodes>
          <leafValues>
            -4.3842235207557678e-01 2.9540273547172546e-01</leafValues></_>
        <_>
          <internalNodes>
            0 -1 45 -11186318 -5158434 -71173709 -1224395820 1448090579
            -212500312 419502862 1325473344</internalNodes>
          <leafValues>
            -4.5506519079208374e-01 2.8533664345741272e-01</leafValues></_>
        <_>
          <internalNodes>
            0 -1 47 -812163213 -536929998 494090042 -536889350
            1474134011 1608504819 1475812606 -545333251</internalNodes>
          <leafValues>
            -3.4662654995918274e-01 3.9238831400871277e-01</leafValues></_></weakClassifiers></_></stages>
  <features>
    <_>
      <rect>
        0 3 7 6</rect></_>
    <_>
      <rect>
        0 9 4 1</rect></_>
    <_>
      <rect>
        1 1 1 1</rect></_>
    <_>
      <rect>
        2 10 4 1</rect></_>
    <_>
      <rect>
        2 20 1 1</rect></_>
    <_>
      <rect>
        3 9 4 2</rect></_>
    <_>
      <rect>
        3 12 3 1</rect></_>
    <_>
      <rect>
        4 7 5 3</rect></_>
    <_>
      <rect>
        4 8 5 2</rect></_>
    <_>
      <rect>
        4 11 3 1</rect></_>
    <_>
      <rect>
        5 8 5 3</rect></_>
    <_>
      <rect>
        5 9 5 2</rect></_>
    <_>
      <rect>
        5 10 2 1</rect></_>
    <_>
      <rect>
        5 10 4 2</rect></_>
    <_>
      <rect>
        5 11 3 1</rect></_>
    <_>
      <rect>
        5 11 4 1</rect></_>
    <_>
      <rect>
        5 12 2 1</rect></_>
    <_>
      <rect>
        6 6 4 3</rect></_>
    <_>
      <rect>
        6 9 6 2</rect></_>
    <_>
      <rect>
        6 10 2 1</rect></_>
    <_>
      <rect>
        6 10 3 1</rect></_>
    <_>
      <rect>
        6 10 4 2</rect></_>
    <_>
      <rect>
        6 12 2 1</rect></_>
    <_>
      <rect>
        6 12 4 1</rect></_>
    <_>
      <rect>
        7 8 4 2</rect></_>
    <_>
      <rect>
        7 10 2 1</rect></_>
    <_>
      <rect>
        7 10 3 1</rect></_>
    <_>
      <rect>
        7 10 4 1</rect></_>
    <_>
      <rect>
        7 10 4 2</rect></_>
    <_>
      <rect>
        7 11 2 1</rect></_>
    <_>
      <rect>
        7 11 4 1</rect></_>
    <_>
      <rect>
        8 9 3 1</rect></_>
    <_>
      <rect>
        8 10 2 1</rect></_>
    <_>
      <rect>
        8 10 3 1</rect></_>
    <_>
      <rect>
        8 10 3 2</rect></_>
    <_>
      <rect>
        8 10 5 1</rect></_>
    <_>
      <rect>
        8 11 2 1</rect></_>
    <_>
      <rect>
        8 11 3 1</rect></_>
    <_>
      <rect>
        9 0 5 6</rect></_>
    <_>
      <rect>
        9 0 5 8</rect></_>
    <_>
      <rect>
        9 2 5 6</rect></_>
    <_>
      <rect>
        9 4 5 6</rect></_>
    <_>
      <rect>
        9 7 3 3</rect></_>
    <_>
      <rect>
        9 8 3 3</rect></_>
    <_>
      <rect>
        9 9 3 2</rect></_>
    <_>
      <rect>
        9 10 1 1</rect></_>
    <_>
      <rect>
        9 10 2 1</rect></_>
    <_>
      <rect>
        9 10 3 1</rect></_>
    <_>
      <rect>
        9 10 3 2</rect></_>
    <_>
      <rect>
        9 11 2 1</rect></_>
    <_>
      <rect>
        10 9 3 2</rect></_>
    <_>
      <rect>
        10 9 4 2</rect></_>
    <_>
      <rect>
        10 10 1 1</rect></_>
    <_>
      <rect>
        10 11 2 1</rect></_>
    <_>
      <rect>
        11 2 4 5</rect></_>
    <_>
      <rect>
        11 7 4 2</rect></_>
    <_>
      <rect>
        11 9 2 1</rect></_>
    <_>
      <rect>
        11 9 3 1</rect></_>
    <_>
      <rect>
        11 10 1 1</rect></_>
    <_>
      <rect>
        11 10 4 1</rect></_>
    <_>
      <rect>
        11 11 1 1</rect></_>
    <_>
      <rect>
        11 12 3 1</rect></_>
    <_>
      <rect>
        11 13 3 2</rect></_>
    <_>
      <rect>
        12 9 2 1</rect></_>
    <_>
      <rect>
        12 9 2 2</rect></_>
    <_>
      <rect>
        12 10 3 1</rect></_>
    <_>
      <rect>
        12 10 4 2</rect></_>
    <_>
      <rect>
        12 11 4 2</rect></_>
    <_>
      <rect>
        13 2 3 7</rect></_>
    <_>
      <rect>
        13 6 2 2</rect></_>
    <_>
      <rect>
        13 10 2 1</rect></_>
    <_>
      <rect>
        13 12 2 1</rect></_>
    <_>
      <rect>
        14 8 1 1</rect></_>
    <_>
      <rect>
        14 8 2 2</rect></_>
    <_>
      <rect>
        14 9 1 2</rect></_>
    <_>
      <rect>
        14 9 2 4</rect></_>
    <_>
      <rect>
        14 10 2 2</rect></_>
    <_>
      <rect>
        14 11 2 1</rect></_>
    <_>
      <rect>
        14 21 1 1</rect></_>
    <_>
      <rect>
        15 8 1 2</rect></_>
    <_>
      <rect>
        15 10 1 1</rect></_>
    <_>
      <rect>
        15 10 1 2</rect></_>
    <_>
      <rect>
        15 11 1 1</rect></_>
    <_>
      <rect>
        16 8 1 1</rect></_>
    <_>
      <rect>
        16 9 1 2</rect></_>
    <_>
      <rect>
        16 10 1 1</rect></_>
    <_>
      <rect>
        16 11 1 1</rect></_>
    <_>
      <rect>
        17 10 1 1</rect></_></features></cascade>
</opencv_storage>
