<?xml version="1.0"?>
<opencv_storage>
<cascade>
  <stageType>BOOST</stageType>
  <featureType>HAAR</featureType>
  <height>18</height>
  <width>32</width>
  <stageParams>
    <boostType>GAB</boostType>
    <minHitRate>9.9900001287460327e-01</minHitRate>
    <maxFalseAlarm>2.7000001072883606e-01</maxFalseAlarm>
    <weightTrimRate>9.4999999999999996e-01</weightTrimRate>
    <maxDepth>1</maxDepth>
    <maxWeakCount>100</maxWeakCount></stageParams>
  <featureParams>
    <maxCatCount>0</maxCatCount>
    <featSize>1</featSize>
    <mode>BASIC</mode></featureParams>
  <stageNum>10</stageNum>
  <stages>
    <!-- stage 0 -->
    <_>
      <maxWeakCount>16</maxWeakCount>
      <stageThreshold>-1.7758779525756836e+00</stageThreshold>
      <weakClassifiers>
        <_>
          <internalNodes>
            0 -1 184 4.5374250039458275e-03</internalNodes>
          <leafValues>
            -6.2305891513824463e-01 8.6780995130538940e-01</leafValues></_>
        <_>
          <internalNodes>
            0 -1 246 -2.4172007106244564e-03</internalNodes>
          <leafValues>
            8.3304381370544434e-01 -3.2933443784713745e-01</leafValues></_>
        <_>
          <internalNodes>
            0 -1 230 -3.4612283343449235e-05</internalNodes>
          <leafValues>
            3.9103925228118896e-01 -5.9681606292724609e-01</leafValues></_>
        <_>
          <internalNodes>
            0 -1 169 -2.6933986693620682e-02</internalNodes>
          <leafValues>
            1.9383008778095245e-01 -8.2423424720764160e-01</leafValues></_>
        <_>
          <internalNodes>
            0 -1 139 4.1280752047896385e-03</internalNodes>
          <leafValues>
            1.8588830530643463e-01 -7.3315614461898804e-01</leafValues></_>
        <_>
          <internalNodes>
            0 -1 140 -1.7625182867050171e-02</internalNodes>
          <leafValues>
            -6.7726993560791016e-01 1.6605070233345032e-01</leafValues></_>
        <_>
          <internalNodes>
            0 -1 102 -2.2139016538858414e-02</internalNodes>
          <leafValues>
            6.9129645824432373e-01 -1.9228383898735046e-01</leafValues></_>
        <_>
          <internalNodes>
            0 -1 222 7.9518067650496960e-04</internalNodes>
          <leafValues>
            -1.5899640321731567e-01 6.6179960966110229e-01</leafValues></_>
        <_>
          <internalNodes>
            0 -1 190 1.1750643607228994e-03</internalNodes>
          <leafValues>
            1.9026204943656921e-01 -6.7087966203689575e-01</leafValues></_>
        <_>
          <internalNodes>
            0 -1 241 -3.4580679493956268e-04</internalNodes>
          <leafValues>
            -6.4859712123870850e-01 1.4535032212734222e-01</leafValues></_>
        <_>
          <internalNodes>
            0 -1 222 -4.0759373223409057e-04</internalNodes>
          <leafValues>
            5.1385450363159180e-01 -2.2407574951648712e-01</leafValues></_>
        <_>
          <internalNodes>
            0 -1 363 -2.1190135739743710e-03</internalNodes>
          <leafValues>
            6.9430679082870483e-01 -1.5468792617321014e-01</leafValues></_>
        <_>
          <internalNodes>
            0 -1 39 8.3972048014402390e-03</internalNodes>
          <leafValues>
            -1.2947964668273926e-01 7.0953631401062012e-01</leafValues></_>
        <_>
          <internalNodes>
            0 -1 6 -2.2219639271497726e-02</internalNodes>
          <leafValues>
            -5.7778793573379517e-01 1.8272870779037476e-01</leafValues></_>
        <_>
          <internalNodes>
            0 -1 278 3.6949542118236423e-04</internalNodes>
          <leafValues>
            1.0572403669357300e-01 -8.4452670812606812e-01</leafValues></_>
        <_>
          <internalNodes>
            0 -1 197 3.7802644073963165e-03</internalNodes>
          <leafValues>
            1.2886351346969604e-01 -6.2049156427383423e-01</leafValues></_></weakClassifiers></_>
    <!-- stage 1 -->
    <_>
      <maxWeakCount>42</maxWeakCount>
      <stageThreshold>-1.7224985361099243e+00</stageThreshold>
      <weakClassifiers>
        <_>
          <internalNodes>
            0 -1 265 2.3175243288278580e-02</internalNodes>
          <leafValues>
            -5.6020474433898926e-01 6.7076820135116577e-01</leafValues></_>
        <_>
          <internalNodes>
            0 -1 180 7.2885351255536079e-03</internalNodes>
          <leafValues>
            -3.4476211667060852e-01 4.9630799889564514e-01</leafValues></_>
        <_>
          <internalNodes>
            0 -1 235 2.3108188179321587e-04</internalNodes>
          <leafValues>
            1.7177899181842804e-01 -7.8474646806716919e-01</leafValues></_>
        <_>
          <internalNodes>
            0 -1 203 2.5718309916555882e-03</internalNodes>
          <leafValues>
            1.6200727224349976e-01 -6.7797076702117920e-01</leafValues></_>
        <_>
          <internalNodes>
            0 -1 446 -3.7910655140876770e-02</internalNodes>
          <leafValues>
            5.1189357042312622e-01 -2.0769308507442474e-01</leafValues></_>
        <_>
          <internalNodes>
            0 -1 116 -2.5362741202116013e-02</internalNodes>
          <leafValues>
            6.9850075244903564e-01 -1.3252553343772888e-01</leafValues></_>
        <_>
          <internalNodes>
            0 -1 87 2.1372362971305847e-02</internalNodes>
          <leafValues>
            -1.2914428114891052e-01 6.5113544464111328e-01</leafValues></_>
        <_>
          <internalNodes>
            0 -1 396 -1.9518253975547850e-04</internalNodes>
          <leafValues>
            2.9537600278854370e-01 -3.2358047366142273e-01</leafValues></_>
        <_>
          <internalNodes>
            0 -1 122 -7.0941940066404641e-05</internalNodes>
          <leafValues>
            2.3255816102027893e-01 -3.2460483908653259e-01</leafValues></_>
        <_>
          <internalNodes>
            0 -1 278 -5.1572290249168873e-04</internalNodes>
          <leafValues>
            -4.0761378407478333e-01 1.9140158593654633e-01</leafValues></_>
        <_>
          <internalNodes>
            0 -1 230 -5.8465924666961655e-05</internalNodes>
          <leafValues>
            1.3784153759479523e-01 -5.0358808040618896e-01</leafValues></_>
        <_>
          <internalNodes>
            0 -1 241 3.3747998531907797e-04</internalNodes>
          <leafValues>
            1.1457657814025879e-01 -6.5342271327972412e-01</leafValues></_>
        <_>
          <internalNodes>
            0 -1 52 5.4686954244971275e-03</internalNodes>
          <leafValues>
            -2.2315426170825958e-01 3.5802564024925232e-01</leafValues></_>
        <_>
          <internalNodes>
            0 -1 421 1.2753604096360505e-04</internalNodes>
          <leafValues>
            -2.9806503653526306e-01 2.6069185137748718e-01</leafValues></_>
        <_>
          <internalNodes>
            0 -1 300 -1.3592018745839596e-02</internalNodes>
          <leafValues>
            9.2230960726737976e-02 -6.7817664146423340e-01</leafValues></_>
        <_>
          <internalNodes>
            0 -1 95 9.5154501497745514e-02</internalNodes>
          <leafValues>
            -1.8617762625217438e-01 3.7252861261367798e-01</leafValues></_>
        <_>
          <internalNodes>
            0 -1 310 3.9692227728664875e-03</internalNodes>
          <leafValues>
            -1.4003923535346985e-01 5.3848046064376831e-01</leafValues></_>
        <_>
          <internalNodes>
            0 -1 241 -3.7538260221481323e-04</internalNodes>
          <leafValues>
            -6.2509739398956299e-01 1.3924847543239594e-01</leafValues></_>
        <_>
          <internalNodes>
            0 -1 124 -4.8432294279336929e-03</internalNodes>
          <leafValues>
            5.4077488183975220e-01 -1.4704754948616028e-01</leafValues></_>
        <_>
          <internalNodes>
            0 -1 222 1.4791348949074745e-03</internalNodes>
          <leafValues>
            -1.1086268723011017e-01 5.7553225755691528e-01</leafValues></_>
        <_>
          <internalNodes>
            0 -1 455 1.2527697253972292e-03</internalNodes>
          <leafValues>
            1.4483304321765900e-01 -5.3274840116500854e-01</leafValues></_>
        <_>
          <internalNodes>
            0 -1 121 -2.5369552895426750e-04</internalNodes>
          <leafValues>
            1.4912174642086029e-01 -3.8210871815681458e-01</leafValues></_>
        <_>
          <internalNodes>
            0 -1 246 2.0571919158101082e-03</internalNodes>
          <leafValues>
            -1.1976769566535950e-01 4.7776541113853455e-01</leafValues></_>
        <_>
          <internalNodes>
            0 -1 357 1.2782312929630280e-02</internalNodes>
          <leafValues>
            1.0068824142217636e-01 -5.8975374698638916e-01</leafValues></_>
        <_>
          <internalNodes>
            0 -1 417 4.0171384171117097e-05</internalNodes>
          <leafValues>
            -2.4215440452098846e-01 1.8783545494079590e-01</leafValues></_>
        <_>
          <internalNodes>
            0 -1 135 3.8353819400072098e-04</internalNodes>
          <leafValues>
            -1.5511861443519592e-01 3.1936746835708618e-01</leafValues></_>
        <_>
          <internalNodes>
            0 -1 278 2.7446844615042210e-04</internalNodes>
          <leafValues>
            9.0692408382892609e-02 -5.8932113647460938e-01</leafValues></_>
        <_>
          <internalNodes>
            0 -1 235 -2.3508623708039522e-03</internalNodes>
          <leafValues>
            -5.5740255117416382e-01 8.5533335804939270e-02</leafValues></_>
        <_>
          <internalNodes>
            0 -1 407 2.7404776774346828e-03</internalNodes>
          <leafValues>
            -1.2706428766250610e-01 4.1655436158180237e-01</leafValues></_>
        <_>
          <internalNodes>
            0 -1 151 -9.3970764428377151e-03</internalNodes>
          <leafValues>
            -4.8773202300071716e-01 1.0360581427812576e-01</leafValues></_>
        <_>
          <internalNodes>
            0 -1 247 1.4262291369959712e-03</internalNodes>
          <leafValues>
            -1.3916403055191040e-01 3.4282499551773071e-01</leafValues></_>
        <_>
          <internalNodes>
            0 -1 447 4.2335144826211035e-04</internalNodes>
          <leafValues>
            1.2095887959003448e-01 -4.3920207023620605e-01</leafValues></_>
        <_>
          <internalNodes>
            0 -1 503 -8.3713028288912028e-05</internalNodes>
          <leafValues>
            -3.1705036759376526e-01 1.3977347314357758e-01</leafValues></_>
        <_>
          <internalNodes>
            0 -1 201 -2.3469957523047924e-03</internalNodes>
          <leafValues>
            4.2329013347625732e-01 -1.0818897187709808e-01</leafValues></_>
        <_>
          <internalNodes>
            0 -1 241 7.4435840360820293e-04</internalNodes>
          <leafValues>
            6.5389715135097504e-02 -7.5698411464691162e-01</leafValues></_>
        <_>
          <internalNodes>
            0 -1 365 -2.3668087087571621e-03</internalNodes>
          <leafValues>
            6.6441369056701660e-01 -7.9572342336177826e-02</leafValues></_>
        <_>
          <internalNodes>
            0 -1 353 2.1859467960894108e-03</internalNodes>
          <leafValues>
            -1.2796971201896667e-01 3.6306992173194885e-01</leafValues></_>
        <_>
          <internalNodes>
            0 -1 471 2.0538268145173788e-03</internalNodes>
          <leafValues>
            1.3520289957523346e-01 -3.4033015370368958e-01</leafValues></_>
        <_>
          <internalNodes>
            0 -1 327 -8.5816215723752975e-03</internalNodes>
          <leafValues>
            -4.5443519949913025e-01 9.4476960599422455e-02</leafValues></_>
        <_>
          <internalNodes>
            0 -1 394 -3.7623319076374173e-04</internalNodes>
          <leafValues>
            1.9295179843902588e-01 -2.2711038589477539e-01</leafValues></_>
        <_>
          <internalNodes>
            0 -1 100 3.0548293143510818e-03</internalNodes>
          <leafValues>
            -1.4569520950317383e-01 3.0031684041023254e-01</leafValues></_>
        <_>
          <internalNodes>
            0 -1 230 2.7191548724658787e-04</internalNodes>
          <leafValues>
            7.8324995934963226e-02 -7.0457035303115845e-01</leafValues></_></weakClassifiers></_>
    <!-- stage 2 -->
    <_>
      <maxWeakCount>44</maxWeakCount>
      <stageThreshold>-1.6564952135086060e+00</stageThreshold>
      <weakClassifiers>
        <_>
          <internalNodes>
            0 -1 193 -1.5610337257385254e-02</internalNodes>
          <leafValues>
            6.4330762624740601e-01 -5.0279808044433594e-01</leafValues></_>
        <_>
          <internalNodes>
            0 -1 214 1.5299391001462936e-02</internalNodes>
          <leafValues>
            -3.0922856926918030e-01 5.4329860210418701e-01</leafValues></_>
        <_>
          <internalNodes>
            0 -1 241 -5.3104816470295191e-04</internalNodes>
          <leafValues>
            -7.8239268064498901e-01 1.5209186077117920e-01</leafValues></_>
        <_>
          <internalNodes>
            0 -1 241 2.5868901866488159e-04</internalNodes>
          <leafValues>
            1.7684951424598694e-01 -6.8661761283874512e-01</leafValues></_>
        <_>
          <internalNodes>
            0 -1 360 -6.0904636979103088e-02</internalNodes>
          <leafValues>
            3.9251914620399475e-01 -2.2883065044879913e-01</leafValues></_>
        <_>
          <internalNodes>
            0 -1 237 8.8295061141252518e-03</internalNodes>
          <leafValues>
            -1.6495092213153839e-01 6.1613774299621582e-01</leafValues></_>
        <_>
          <internalNodes>
            0 -1 236 -2.5585823459550738e-04</internalNodes>
          <leafValues>
            2.5412261486053467e-01 -3.5108959674835205e-01</leafValues></_>
        <_>
          <internalNodes>
            0 -1 319 -2.7183916419744492e-02</internalNodes>
          <leafValues>
            5.8123309165239334e-02 -7.2826170921325684e-01</leafValues></_>
        <_>
          <internalNodes>
            0 -1 209 -1.2073448160663247e-03</internalNodes>
          <leafValues>
            -6.1071223020553589e-01 1.0708681493997574e-01</leafValues></_>
        <_>
          <internalNodes>
            0 -1 2 -1.7568658292293549e-01</internalNodes>
          <leafValues>
            -3.9024764299392700e-01 1.8397791683673859e-01</leafValues></_>
        <_>
          <internalNodes>
            0 -1 223 -2.4453243240714073e-03</internalNodes>
          <leafValues>
            6.0941237211227417e-01 -1.0525122284889221e-01</leafValues></_>
        <_>
          <internalNodes>
            0 -1 184 2.3265450727194548e-03</internalNodes>
          <leafValues>
            -2.4057550728321075e-01 2.8617221117019653e-01</leafValues></_>
        <_>
          <internalNodes>
            0 -1 143 -8.0371799413114786e-05</internalNodes>
          <leafValues>
            2.3510172963142395e-01 -2.9822808504104614e-01</leafValues></_>
        <_>
          <internalNodes>
            0 -1 42 1.1791042983531952e-01</internalNodes>
          <leafValues>
            -1.0963113605976105e-01 7.3887050151824951e-01</leafValues></_>
        <_>
          <internalNodes>
            0 -1 15 -2.0148968324065208e-03</internalNodes>
          <leafValues>
            -5.2868926525115967e-01 1.4805102348327637e-01</leafValues></_>
        <_>
          <internalNodes>
            0 -1 37 -3.3096875995397568e-02</internalNodes>
          <leafValues>
            4.8288065195083618e-01 -1.3251985609531403e-01</leafValues></_>
        <_>
          <internalNodes>
            0 -1 239 9.3870703130960464e-03</internalNodes>
          <leafValues>
            9.9972583353519440e-02 -7.5204831361770630e-01</leafValues></_>
        <_>
          <internalNodes>
            0 -1 490 -5.7527795433998108e-04</internalNodes>
          <leafValues>
            -5.3695166110992432e-01 8.3847135305404663e-02</leafValues></_>
        <_>
          <internalNodes>
            0 -1 209 1.4488283777609468e-03</internalNodes>
          <leafValues>
            9.0949453413486481e-02 -5.5535221099853516e-01</leafValues></_>
        <_>
          <internalNodes>
            0 -1 94 -1.0796836577355862e-03</internalNodes>
          <leafValues>
            -5.1159137487411499e-01 8.0378144979476929e-02</leafValues></_>
        <_>
          <internalNodes>
            0 -1 135 1.2348099844530225e-03</internalNodes>
          <leafValues>
            -1.1621117591857910e-01 4.4494950771331787e-01</leafValues></_>
        <_>
          <internalNodes>
            0 -1 239 -1.2337930500507355e-02</internalNodes>
          <leafValues>
            -5.9884309768676758e-01 1.0199254751205444e-01</leafValues></_>
        <_>
          <internalNodes>
            0 -1 422 4.8437700024805963e-04</internalNodes>
          <leafValues>
            -2.4055621027946472e-01 1.9026724994182587e-01</leafValues></_>
        <_>
          <internalNodes>
            0 -1 448 -2.7098157443106174e-03</internalNodes>
          <leafValues>
            -5.3164064884185791e-01 1.0631159693002701e-01</leafValues></_>
        <_>
          <internalNodes>
            0 -1 25 -4.7868162393569946e-02</internalNodes>
          <leafValues>
            4.9048650264739990e-01 -1.0672504454851151e-01</leafValues></_>
        <_>
          <internalNodes>
            0 -1 53 -2.2487256210297346e-03</internalNodes>
          <leafValues>
            3.0235406756401062e-01 -1.7722424864768982e-01</leafValues></_>
        <_>
          <internalNodes>
            0 -1 82 1.7334479838609695e-02</internalNodes>
          <leafValues>
            -2.3049315810203552e-01 2.2908310592174530e-01</leafValues></_>
        <_>
          <internalNodes>
            0 -1 153 -8.4217259427532554e-04</internalNodes>
          <leafValues>
            -5.5326139926910400e-01 8.0334253609180450e-02</leafValues></_>
        <_>
          <internalNodes>
            0 -1 183 -2.0634478423744440e-03</internalNodes>
          <leafValues>
            3.7788477540016174e-01 -1.4395797252655029e-01</leafValues></_>
        <_>
          <internalNodes>
            0 -1 199 -6.7177833989262581e-04</internalNodes>
          <leafValues>
            -5.4191547632217407e-01 8.7708577513694763e-02</leafValues></_>
        <_>
          <internalNodes>
            0 -1 364 -2.5549256242811680e-03</internalNodes>
          <leafValues>
            4.1194278001785278e-01 -1.2627013027667999e-01</leafValues></_>
        <_>
          <internalNodes>
            0 -1 426 4.3049329542554915e-04</internalNodes>
          <leafValues>
            1.1118145287036896e-01 -4.4714617729187012e-01</leafValues></_>
        <_>
          <internalNodes>
            0 -1 73 1.1186741292476654e-01</internalNodes>
          <leafValues>
            6.8554408848285675e-02 -6.3751488924026489e-01</leafValues></_>
        <_>
          <internalNodes>
            0 -1 230 -1.6219128156080842e-05</internalNodes>
          <leafValues>
            8.3744078874588013e-02 -4.5528414845466614e-01</leafValues></_>
        <_>
          <internalNodes>
            0 -1 104 2.0277383737266064e-03</internalNodes>
          <leafValues>
            -1.3322386145591736e-01 3.5415306687355042e-01</leafValues></_>
        <_>
          <internalNodes>
            0 -1 101 2.0187005400657654e-02</internalNodes>
          <leafValues>
            -8.5645079612731934e-02 5.7371342182159424e-01</leafValues></_>
        <_>
          <internalNodes>
            0 -1 72 -3.1652685720473528e-04</internalNodes>
          <leafValues>
            -3.9246773719787598e-01 1.2817561626434326e-01</leafValues></_>
        <_>
          <internalNodes>
            0 -1 170 2.4318648502230644e-03</internalNodes>
          <leafValues>
            -1.3045442104339600e-01 3.3014276623725891e-01</leafValues></_>
        <_>
          <internalNodes>
            0 -1 24 -1.9666128791868687e-03</internalNodes>
          <leafValues>
            -5.6101500988006592e-01 8.7684877216815948e-02</leafValues></_>
        <_>
          <internalNodes>
            0 -1 235 -1.5076315030455589e-03</internalNodes>
          <leafValues>
            -4.0883031487464905e-01 1.0510120540857315e-01</leafValues></_>
        <_>
          <internalNodes>
            0 -1 111 -5.5437232367694378e-04</internalNodes>
          <leafValues>
            -5.1612788438796997e-01 8.4756530821323395e-02</leafValues></_>
        <_>
          <internalNodes>
            0 -1 276 -1.2036919360980392e-03</internalNodes>
          <leafValues>
            2.4764050543308258e-01 -2.0140142738819122e-01</leafValues></_>
        <_>
          <internalNodes>
            0 -1 54 -6.9278769660741091e-04</internalNodes>
          <leafValues>
            -5.0035518407821655e-01 7.6482437551021576e-02</leafValues></_>
        <_>
          <internalNodes>
            0 -1 411 -1.2899971567094326e-02</internalNodes>
          <leafValues>
            6.1958003789186478e-02 -5.6434261798858643e-01</leafValues></_></weakClassifiers></_>
    <!-- stage 3 -->
    <_>
      <maxWeakCount>58</maxWeakCount>
      <stageThreshold>-1.6659746170043945e+00</stageThreshold>
      <weakClassifiers>
        <_>
          <internalNodes>
            0 -1 181 1.2558847665786743e-02</internalNodes>
          <leafValues>
            -5.5534929037094116e-01 5.9323096275329590e-01</leafValues></_>
        <_>
          <internalNodes>
            0 -1 284 -2.4097950663417578e-03</internalNodes>
          <leafValues>
            6.0484039783477783e-01 -2.5602322816848755e-01</leafValues></_>
        <_>
          <internalNodes>
            0 -1 382 1.0019170120358467e-02</internalNodes>
          <leafValues>
            -2.5215509533882141e-01 3.5640186071395874e-01</leafValues></_>
        <_>
          <internalNodes>
            0 -1 339 9.2833396047353745e-03</internalNodes>
          <leafValues>
            -1.4373578131198883e-01 4.3869435787200928e-01</leafValues></_>
        <_>
          <internalNodes>
            0 -1 221 -5.5736466310918331e-04</internalNodes>
          <leafValues>
            5.0325453281402588e-01 -2.0989145338535309e-01</leafValues></_>
        <_>
          <internalNodes>
            0 -1 78 -7.0280432701110840e-02</internalNodes>
          <leafValues>
            -9.8492109775543213e-01 8.5029490292072296e-02</leafValues></_>
        <_>
          <internalNodes>
            0 -1 167 2.6543153217062354e-04</internalNodes>
          <leafValues>
            1.3978381454944611e-01 -4.0623721480369568e-01</leafValues></_>
        <_>
          <internalNodes>
            0 -1 70 -2.2483288776129484e-03</internalNodes>
          <leafValues>
            2.9348829388618469e-01 -1.7736244201660156e-01</leafValues></_>
        <_>
          <internalNodes>
            0 -1 194 -1.7530901357531548e-02</internalNodes>
          <leafValues>
            -6.7982614040374756e-01 6.6596500575542450e-02</leafValues></_>
        <_>
          <internalNodes>
            0 -1 250 2.6239245198667049e-03</internalNodes>
          <leafValues>
            8.9809738099575043e-02 -5.6480693817138672e-01</leafValues></_>
        <_>
          <internalNodes>
            0 -1 70 3.6478184629231691e-03</internalNodes>
          <leafValues>
            -1.6237209737300873e-01 3.9284324645996094e-01</leafValues></_>
        <_>
          <internalNodes>
            0 -1 298 2.1045687608420849e-03</internalNodes>
          <leafValues>
            -5.5758517235517502e-02 7.2497439384460449e-01</leafValues></_>
        <_>
          <internalNodes>
            0 -1 278 4.4951227027922869e-04</internalNodes>
          <leafValues>
            7.8583233058452606e-02 -7.5103622674942017e-01</leafValues></_>
        <_>
          <internalNodes>
            0 -1 236 -4.1678134584799409e-04</internalNodes>
          <leafValues>
            1.4467275142669678e-01 -3.4447094798088074e-01</leafValues></_>
        <_>
          <internalNodes>
            0 -1 4 5.9888022951781750e-03</internalNodes>
          <leafValues>
            -2.3985987901687622e-01 2.0992629230022430e-01</leafValues></_>
        <_>
          <internalNodes>
            0 -1 241 -9.6590199973434210e-04</internalNodes>
          <leafValues>
            -9.4499403238296509e-01 4.9668692052364349e-02</leafValues></_>
        <_>
          <internalNodes>
            0 -1 229 -3.1631858291802928e-05</internalNodes>
          <leafValues>
            1.6054527461528778e-01 -2.7707380056381226e-01</leafValues></_>
        <_>
          <internalNodes>
            0 -1 50 -1.7928043007850647e-01</internalNodes>
          <leafValues>
            -5.7896351814270020e-01 9.0909674763679504e-02</leafValues></_>
        <_>
          <internalNodes>
            0 -1 451 5.1719980547204614e-04</internalNodes>
          <leafValues>
            1.3053126633167267e-01 -3.5908302664756775e-01</leafValues></_>
        <_>
          <internalNodes>
            0 -1 397 2.7458146214485168e-03</internalNodes>
          <leafValues>
            -1.2861077487468719e-01 4.2200711369514465e-01</leafValues></_>
        <_>
          <internalNodes>
            0 -1 23 2.8460830450057983e-02</internalNodes>
          <leafValues>
            -1.2418588995933533e-01 4.3317759037017822e-01</leafValues></_>
        <_>
          <internalNodes>
            0 -1 164 -4.4191651977598667e-03</internalNodes>
          <leafValues>
            -4.4276410341262817e-01 1.2552475929260254e-01</leafValues></_>
        <_>
          <internalNodes>
            0 -1 434 -6.8943372752983123e-05</internalNodes>
          <leafValues>
            1.6873627901077271e-01 -3.1688770651817322e-01</leafValues></_>
        <_>
          <internalNodes>
            0 -1 269 3.4244547132402658e-03</internalNodes>
          <leafValues>
            -1.1784391105175018e-01 4.3347397446632385e-01</leafValues></_>
        <_>
          <internalNodes>
            0 -1 225 -2.7181042823940516e-03</internalNodes>
          <leafValues>
            3.9251846075057983e-01 -1.1520713567733765e-01</leafValues></_>
        <_>
          <internalNodes>
            0 -1 257 -5.2329112077131867e-04</internalNodes>
          <leafValues>
            -2.7680635452270508e-01 1.7656715214252472e-01</leafValues></_>
        <_>
          <internalNodes>
            0 -1 482 -1.1057276278734207e-03</internalNodes>
          <leafValues>
            -5.9319508075714111e-01 7.5792677700519562e-02</leafValues></_>
        <_>
          <internalNodes>
            0 -1 514 -3.0252684373408556e-03</internalNodes>
          <leafValues>
            5.3225648403167725e-01 -8.3198383450508118e-02</leafValues></_>
        <_>
          <internalNodes>
            0 -1 255 5.5928912479430437e-04</internalNodes>
          <leafValues>
            9.5386318862438202e-02 -4.7725477814674377e-01</leafValues></_>
        <_>
          <internalNodes>
            0 -1 19 -2.7340611815452576e-01</internalNodes>
          <leafValues>
            -5.8310395479202271e-01 6.2746025621891022e-02</leafValues></_>
        <_>
          <internalNodes>
            0 -1 128 7.7556677162647247e-02</internalNodes>
          <leafValues>
            7.1140356361865997e-02 -5.6219363212585449e-01</leafValues></_>
        <_>
          <internalNodes>
            0 -1 362 2.9630600474774837e-03</internalNodes>
          <leafValues>
            -8.2691445946693420e-02 5.2609801292419434e-01</leafValues></_>
        <_>
          <internalNodes>
            0 -1 21 5.4440379608422518e-04</internalNodes>
          <leafValues>
            9.8325565457344055e-02 -3.8547044992446899e-01</leafValues></_>
        <_>
          <internalNodes>
            0 -1 380 2.0461417734622955e-03</internalNodes>
          <leafValues>
            -6.7905567586421967e-02 6.1704248189926147e-01</leafValues></_>
        <_>
          <internalNodes>
            0 -1 191 -3.8161665201187134e-02</internalNodes>
          <leafValues>
            5.8536767959594727e-02 -7.7870625257492065e-01</leafValues></_>
        <_>
          <internalNodes>
            0 -1 49 -6.2303349375724792e-02</internalNodes>
          <leafValues>
            -3.1148391962051392e-01 1.4324042201042175e-01</leafValues></_>
        <_>
          <internalNodes>
            0 -1 107 7.6871103374287486e-04</internalNodes>
          <leafValues>
            -1.6527882218360901e-01 2.7383384108543396e-01</leafValues></_>
        <_>
          <internalNodes>
            0 -1 258 4.3645844561979175e-04</internalNodes>
          <leafValues>
            9.8203256726264954e-02 -4.1601371765136719e-01</leafValues></_>
        <_>
          <internalNodes>
            0 -1 85 2.8350492939352989e-03</internalNodes>
          <leafValues>
            -1.2861396372318268e-01 3.0062505602836609e-01</leafValues></_>
        <_>
          <internalNodes>
            0 -1 123 -3.8571987533941865e-04</internalNodes>
          <leafValues>
            1.9179932773113251e-01 -2.1330550312995911e-01</leafValues></_>
        <_>
          <internalNodes>
            0 -1 202 1.2498183641582727e-03</internalNodes>
          <leafValues>
            -1.6267111897468567e-01 2.6097458600997925e-01</leafValues></_>
        <_>
          <internalNodes>
            0 -1 139 -1.1730059050023556e-02</internalNodes>
          <leafValues>
            -3.7461763620376587e-01 1.0186304897069931e-01</leafValues></_>
        <_>
          <internalNodes>
            0 -1 196 -1.2099257583031431e-04</internalNodes>
          <leafValues>
            1.2874943017959595e-01 -2.9093003273010254e-01</leafValues></_>
        <_>
          <internalNodes>
            0 -1 418 4.1141494875773787e-05</internalNodes>
          <leafValues>
            -2.7125704288482666e-01 1.6366243362426758e-01</leafValues></_>
        <_>
          <internalNodes>
            0 -1 119 1.5598753234371543e-03</internalNodes>
          <leafValues>
            -1.2063427269458771e-01 3.5184389352798462e-01</leafValues></_>
        <_>
          <internalNodes>
            0 -1 26 2.1087386994622648e-04</internalNodes>
          <leafValues>
            1.4225964248180389e-01 -3.0503544211387634e-01</leafValues></_>
        <_>
          <internalNodes>
            0 -1 133 -1.7138643190264702e-02</internalNodes>
          <leafValues>
            -4.9331352114677429e-01 7.1782104671001434e-02</leafValues></_>
        <_>
          <internalNodes>
            0 -1 51 -1.5128983184695244e-02</internalNodes>
          <leafValues>
            4.2348259687423706e-01 -9.3694992363452911e-02</leafValues></_>
        <_>
          <internalNodes>
            0 -1 145 4.0537171298637986e-04</internalNodes>
          <leafValues>
            9.9876031279563904e-02 -3.9716085791587830e-01</leafValues></_>
        <_>
          <internalNodes>
            0 -1 247 -7.7630538726225495e-04</internalNodes>
          <leafValues>
            3.1794911623001099e-01 -1.1884595453739166e-01</leafValues></_>
        <_>
          <internalNodes>
            0 -1 278 8.3205045666545630e-04</internalNodes>
          <leafValues>
            4.7338537871837616e-02 -8.3582228422164917e-01</leafValues></_>
        <_>
          <internalNodes>
            0 -1 262 6.9720004685223103e-03</internalNodes>
          <leafValues>
            -1.7106586694717407e-01 2.1942065656185150e-01</leafValues></_>
        <_>
          <internalNodes>
            0 -1 132 2.2757060825824738e-02</internalNodes>
          <leafValues>
            4.7703679651021957e-02 -8.3394151926040649e-01</leafValues></_>
        <_>
          <internalNodes>
            0 -1 56 -5.3606601431965828e-03</internalNodes>
          <leafValues>
            3.8768529891967773e-01 -1.0084139555692673e-01</leafValues></_>
        <_>
          <internalNodes>
            0 -1 316 -1.4040721580386162e-03</internalNodes>
          <leafValues>
            5.2328753471374512e-01 -6.2767654657363892e-02</leafValues></_>
        <_>
          <internalNodes>
            0 -1 316 9.3939364887773991e-04</internalNodes>
          <leafValues>
            -9.5667846500873566e-02 3.8233172893524170e-01</leafValues></_>
        <_>
          <internalNodes>
            0 -1 455 9.1917463578283787e-04</internalNodes>
          <leafValues>
            1.1243982613086700e-01 -4.1542023420333862e-01</leafValues></_>
        <_>
          <internalNodes>
            0 -1 448 -2.5609862059354782e-03</internalNodes>
          <leafValues>
            -5.1210707426071167e-01 6.3836753368377686e-02</leafValues></_></weakClassifiers></_>
    <!-- stage 4 -->
    <_>
      <maxWeakCount>64</maxWeakCount>
      <stageThreshold>-1.4282382726669312e+00</stageThreshold>
      <weakClassifiers>
        <_>
          <internalNodes>
            0 -1 266 2.5476263836026192e-02</internalNodes>
          <leafValues>
            -5.3059315681457520e-01 5.5065256357192993e-01</leafValues></_>
        <_>
          <internalNodes>
            0 -1 246 -1.7811448778957129e-03</internalNodes>
          <leafValues>
            3.7189632654190063e-01 -3.4631314873695374e-01</leafValues></_>
        <_>
          <internalNodes>
            0 -1 437 -2.5615986436605453e-02</internalNodes>
          <leafValues>
            3.3822122216224670e-01 -2.2676719725131989e-01</leafValues></_>
        <_>
          <internalNodes>
            0 -1 253 -1.6430882737040520e-02</internalNodes>
          <leafValues>
            5.8589923381805420e-01 -1.2461343407630920e-01</leafValues></_>
        <_>
          <internalNodes>
            0 -1 165 -1.0835942812263966e-03</internalNodes>
          <leafValues>
            1.7949652671813965e-01 -3.9360767602920532e-01</leafValues></_>
        <_>
          <internalNodes>
            0 -1 32 -1.4431025087833405e-01</internalNodes>
          <leafValues>
            7.2273284196853638e-01 -5.5206850171089172e-02</leafValues></_>
        <_>
          <internalNodes>
            0 -1 455 -2.3708418011665344e-03</internalNodes>
          <leafValues>
            -5.2584755420684814e-01 1.0492733120918274e-01</leafValues></_>
        <_>
          <internalNodes>
            0 -1 230 -4.6589681005571038e-05</internalNodes>
          <leafValues>
            1.1089096963405609e-01 -4.4598820805549622e-01</leafValues></_>
        <_>
          <internalNodes>
            0 -1 250 3.8840032648295164e-03</internalNodes>
          <leafValues>
            4.1190568357706070e-02 -5.9500652551651001e-01</leafValues></_>
        <_>
          <internalNodes>
            0 -1 221 -1.3966291444376111e-03</internalNodes>
          <leafValues>
            5.4252105951309204e-01 -9.0081520378589630e-02</leafValues></_>
        <_>
          <internalNodes>
            0 -1 354 2.8185406699776649e-03</internalNodes>
          <leafValues>
            -1.5685003995895386e-01 2.9377147555351257e-01</leafValues></_>
        <_>
          <internalNodes>
            0 -1 3 1.6773060197010636e-03</internalNodes>
          <leafValues>
            -2.6841825246810913e-01 1.5691533684730530e-01</leafValues></_>
        <_>
          <internalNodes>
            0 -1 480 1.8466405570507050e-02</internalNodes>
          <leafValues>
            -1.2511989474296570e-01 3.8429492712020874e-01</leafValues></_>
        <_>
          <internalNodes>
            0 -1 281 -8.9450590312480927e-03</internalNodes>
          <leafValues>
            -6.1909949779510498e-01 1.0329017788171768e-01</leafValues></_>
        <_>
          <internalNodes>
            0 -1 221 2.8140177018940449e-03</internalNodes>
          <leafValues>
            -1.2127774208784103e-01 3.7565296888351440e-01</leafValues></_>
        <_>
          <internalNodes>
            0 -1 435 -1.4424000983126462e-04</internalNodes>
          <leafValues>
            1.4895513653755188e-01 -2.5658041238784790e-01</leafValues></_>
        <_>
          <internalNodes>
            0 -1 334 -8.8789165019989014e-03</internalNodes>
          <leafValues>
            -4.7971788048744202e-01 1.0728883743286133e-01</leafValues></_>
        <_>
          <internalNodes>
            0 -1 80 1.2816908769309521e-02</internalNodes>
          <leafValues>
            -1.1539193242788315e-01 3.6240047216415405e-01</leafValues></_>
        <_>
          <internalNodes>
            0 -1 59 -2.8719324618577957e-02</internalNodes>
          <leafValues>
            3.4062018990516663e-01 -1.1203852295875549e-01</leafValues></_>
        <_>
          <internalNodes>
            0 -1 31 7.8527420759201050e-02</internalNodes>
          <leafValues>
            -6.1031360179185867e-02 5.7054138183593750e-01</leafValues></_>
        <_>
          <internalNodes>
            0 -1 66 -8.8815577328205109e-04</internalNodes>
          <leafValues>
            2.5566956400871277e-01 -1.6261671483516693e-01</leafValues></_>
        <_>
          <internalNodes>
            0 -1 278 -1.1127853067591786e-03</internalNodes>
          <leafValues>
            -5.3125691413879395e-01 7.6199367642402649e-02</leafValues></_>
        <_>
          <internalNodes>
            0 -1 409 -1.3463933952152729e-02</internalNodes>
          <leafValues>
            6.0023572295904160e-02 -5.7395607233047485e-01</leafValues></_>
        <_>
          <internalNodes>
            0 -1 117 -1.7402200028300285e-03</internalNodes>
          <leafValues>
            5.4466903209686279e-01 -7.1662493050098419e-02</leafValues></_>
        <_>
          <internalNodes>
            0 -1 260 -1.4842733740806580e-01</internalNodes>
          <leafValues>
            -2.7945318818092346e-01 1.5095089375972748e-01</leafValues></_>
        <_>
          <internalNodes>
            0 -1 127 -7.9025578452274203e-04</internalNodes>
          <leafValues>
            -4.2080900073051453e-01 9.1161437332630157e-02</leafValues></_>
        <_>
          <internalNodes>
            0 -1 359 -1.5654400922358036e-03</internalNodes>
          <leafValues>
            3.1461194157600403e-01 -1.2581160664558411e-01</leafValues></_>
        <_>
          <internalNodes>
            0 -1 361 2.5680721737444401e-03</internalNodes>
          <leafValues>
            -4.8741124570369720e-02 6.6787439584732056e-01</leafValues></_>
        <_>
          <internalNodes>
            0 -1 241 3.4254280035383999e-04</internalNodes>
          <leafValues>
            7.0757113397121429e-02 -5.5059587955474854e-01</leafValues></_>
        <_>
          <internalNodes>
            0 -1 243 -8.6702633416280150e-04</internalNodes>
          <leafValues>
            3.9673936367034912e-01 -1.1272122710943222e-01</leafValues></_>
        <_>
          <internalNodes>
            0 -1 256 4.7778169391676784e-04</internalNodes>
          <leafValues>
            9.5554560422897339e-02 -4.3161490559577942e-01</leafValues></_>
        <_>
          <internalNodes>
            0 -1 372 -3.0065057799220085e-03</internalNodes>
          <leafValues>
            7.5906074047088623e-01 -6.0183774679899216e-02</leafValues></_>
        <_>
          <internalNodes>
            0 -1 454 -1.1399590875953436e-03</internalNodes>
          <leafValues>
            -5.2754658460617065e-01 7.4679456651210785e-02</leafValues></_>
        <_>
          <internalNodes>
            0 -1 448 -9.3865033704787493e-05</internalNodes>
          <leafValues>
            1.4469189941883087e-01 -2.5466531515121460e-01</leafValues></_>
        <_>
          <internalNodes>
            0 -1 204 2.0365070085972548e-03</internalNodes>
          <leafValues>
            -7.9109132289886475e-02 4.6288961172103882e-01</leafValues></_>
        <_>
          <internalNodes>
            0 -1 332 -2.8404449112713337e-03</internalNodes>
          <leafValues>
            4.3476605415344238e-01 -7.6718658208847046e-02</leafValues></_>
        <_>
          <internalNodes>
            0 -1 395 -3.9628146623726934e-05</internalNodes>
          <leafValues>
            1.7236314713954926e-01 -1.9119578599929810e-01</leafValues></_>
        <_>
          <internalNodes>
            0 -1 329 6.1746517894789577e-04</internalNodes>
          <leafValues>
            8.4833949804306030e-02 -3.9832428097724915e-01</leafValues></_>
        <_>
          <internalNodes>
            0 -1 484 -3.6111720837652683e-03</internalNodes>
          <leafValues>
            2.5465235114097595e-01 -1.2658758461475372e-01</leafValues></_>
        <_>
          <internalNodes>
            0 -1 497 3.1879800371825695e-03</internalNodes>
          <leafValues>
            -1.2172964215278625e-01 2.9333052039146423e-01</leafValues></_>
        <_>
          <internalNodes>
            0 -1 502 -3.1503458740189672e-04</internalNodes>
          <leafValues>
            -2.5052466988563538e-01 1.2990190088748932e-01</leafValues></_>
        <_>
          <internalNodes>
            0 -1 76 -3.0869240872561932e-03</internalNodes>
          <leafValues>
            2.3134177923202515e-01 -1.3787513971328735e-01</leafValues></_>
        <_>
          <internalNodes>
            0 -1 419 -7.6496666297316551e-03</internalNodes>
          <leafValues>
            -7.0799571275711060e-01 5.2116405218839645e-02</leafValues></_>
        <_>
          <internalNodes>
            0 -1 398 2.3255040869116783e-03</internalNodes>
          <leafValues>
            5.9487681835889816e-02 -4.4893205165863037e-01</leafValues></_>
        <_>
          <internalNodes>
            0 -1 452 -1.7610753420740366e-03</internalNodes>
          <leafValues>
            2.6831349730491638e-01 -1.1972416192293167e-01</leafValues></_>
        <_>
          <internalNodes>
            0 -1 118 -1.6387763025704771e-04</internalNodes>
          <leafValues>
            2.0415918529033661e-01 -1.5443539619445801e-01</leafValues></_>
        <_>
          <internalNodes>
            0 -1 520 3.9577245479449630e-04</internalNodes>
          <leafValues>
            1.1403560638427734e-01 -2.8747013211250305e-01</leafValues></_>
        <_>
          <internalNodes>
            0 -1 14 1.4841936528682709e-02</internalNodes>
          <leafValues>
            -8.7384723126888275e-02 3.3705645799636841e-01</leafValues></_>
        <_>
          <internalNodes>
            0 -1 213 1.0107713751494884e-03</internalNodes>
          <leafValues>
            -1.9249954819679260e-01 1.5575952827930450e-01</leafValues></_>
        <_>
          <internalNodes>
            0 -1 115 4.4654112309217453e-02</internalNodes>
          <leafValues>
            5.4832540452480316e-02 -5.3514301776885986e-01</leafValues></_>
        <_>
          <internalNodes>
            0 -1 390 5.5831304052844644e-05</internalNodes>
          <leafValues>
            1.5445756912231445e-01 -2.0752246677875519e-01</leafValues></_>
        <_>
          <internalNodes>
            0 -1 506 1.3426423538476229e-03</internalNodes>
          <leafValues>
            -1.1031205207109451e-01 2.6598030328750610e-01</leafValues></_>
        <_>
          <internalNodes>
            0 -1 154 -7.9254421871155500e-04</internalNodes>
          <leafValues>
            -4.6468275785446167e-01 6.7555926740169525e-02</leafValues></_>
        <_>
          <internalNodes>
            0 -1 313 -2.1959480363875628e-03</internalNodes>
          <leafValues>
            3.1852552294731140e-01 -1.0012178122997284e-01</leafValues></_>
        <_>
          <internalNodes>
            0 -1 224 -1.0339776054024696e-03</internalNodes>
          <leafValues>
            2.0828880369663239e-01 -1.5815238654613495e-01</leafValues></_>
        <_>
          <internalNodes>
            0 -1 164 7.7960584312677383e-03</internalNodes>
          <leafValues>
            3.7308193743228912e-02 -8.9363235235214233e-01</leafValues></_>
        <_>
          <internalNodes>
            0 -1 222 9.5895462436601520e-04</internalNodes>
          <leafValues>
            -1.0844501107931137e-01 3.7254816293716431e-01</leafValues></_>
        <_>
          <internalNodes>
            0 -1 121 -7.9606845974922180e-03</internalNodes>
          <leafValues>
            -2.6879116892814636e-01 1.3519762456417084e-01</leafValues></_>
        <_>
          <internalNodes>
            0 -1 144 -1.6444490756839514e-04</internalNodes>
          <leafValues>
            1.3285987079143524e-01 -2.4496258795261383e-01</leafValues></_>
        <_>
          <internalNodes>
            0 -1 179 2.1386709704529494e-04</internalNodes>
          <leafValues>
            -1.6546171903610229e-01 1.9976724684238434e-01</leafValues></_>
        <_>
          <internalNodes>
            0 -1 515 9.3737704446539283e-04</internalNodes>
          <leafValues>
            6.5684102475643158e-02 -4.9418047070503235e-01</leafValues></_>
        <_>
          <internalNodes>
            0 -1 290 9.9074970930814743e-03</internalNodes>
          <leafValues>
            -1.0211348533630371e-01 3.0629193782806396e-01</leafValues></_>
        <_>
          <internalNodes>
            0 -1 501 7.2398374322801828e-04</internalNodes>
          <leafValues>
            9.1653682291507721e-02 -3.6968138813972473e-01</leafValues></_>
        <_>
          <internalNodes>
            0 -1 18 2.0095817744731903e-02</internalNodes>
          <leafValues>
            1.0451397299766541e-01 -2.5870636105537415e-01</leafValues></_></weakClassifiers></_>
    <!-- stage 5 -->
    <_>
      <maxWeakCount>78</maxWeakCount>
      <stageThreshold>-1.3995889425277710e+00</stageThreshold>
      <weakClassifiers>
        <_>
          <internalNodes>
            0 -1 336 6.3860435038805008e-03</internalNodes>
          <leafValues>
            -4.6188768744468689e-01 4.3227753043174744e-01</leafValues></_>
        <_>
          <internalNodes>
            0 -1 284 -2.4421319831162691e-03</internalNodes>
          <leafValues>
            4.6377924084663391e-01 -2.4338044226169586e-01</leafValues></_>
        <_>
          <internalNodes>
            0 -1 198 3.1815581023693085e-03</internalNodes>
          <leafValues>
            1.5916256606578827e-01 -5.0547766685485840e-01</leafValues></_>
        <_>
          <internalNodes>
            0 -1 410 -6.2028644606471062e-04</internalNodes>
          <leafValues>
            -3.4383705258369446e-01 1.9908900558948517e-01</leafValues></_>
        <_>
          <internalNodes>
            0 -1 152 4.1635867208242416e-02</internalNodes>
          <leafValues>
            -1.8920689821243286e-01 3.2351988554000854e-01</leafValues></_>
        <_>
          <internalNodes>
            0 -1 231 3.1708308961242437e-04</internalNodes>
          <leafValues>
            7.1690678596496582e-02 -5.1679593324661255e-01</leafValues></_>
        <_>
          <internalNodes>
            0 -1 241 -3.1231879256665707e-04</internalNodes>
          <leafValues>
            -4.6980538964271545e-01 1.0306284576654434e-01</leafValues></_>
        <_>
          <internalNodes>
            0 -1 405 6.4282745122909546e-02</internalNodes>
          <leafValues>
            -6.7220024764537811e-02 6.8406724929809570e-01</leafValues></_>
        <_>
          <internalNodes>
            0 -1 453 -3.0044052749872208e-02</internalNodes>
          <leafValues>
            2.7158915996551514e-01 -1.6965699195861816e-01</leafValues></_>
        <_>
          <internalNodes>
            0 -1 278 4.3364378507249057e-04</internalNodes>
          <leafValues>
            4.9595024436712265e-02 -7.7019578218460083e-01</leafValues></_>
        <_>
          <internalNodes>
            0 -1 210 -1.1577742174267769e-02</internalNodes>
          <leafValues>
            -3.7819689512252808e-01 1.2567873299121857e-01</leafValues></_>
        <_>
          <internalNodes>
            0 -1 86 1.7941270023584366e-02</internalNodes>
          <leafValues>
            -1.1077052354812622e-01 4.3979454040527344e-01</leafValues></_>
        <_>
          <internalNodes>
            0 -1 168 -1.7287900845985860e-05</internalNodes>
          <leafValues>
            1.6355118155479431e-01 -2.8281313180923462e-01</leafValues></_>
        <_>
          <internalNodes>
            0 -1 43 -5.5958973243832588e-03</internalNodes>
          <leafValues>
            3.6218354105949402e-01 -1.2582737207412720e-01</leafValues></_>
        <_>
          <internalNodes>
            0 -1 134 2.7657096507027745e-04</internalNodes>
          <leafValues>
            1.3328288495540619e-01 -3.0329135060310364e-01</leafValues></_>
        <_>
          <internalNodes>
            0 -1 212 -4.5712533756159246e-04</internalNodes>
          <leafValues>
            -3.6710241436958313e-01 9.1720022261142731e-02</leafValues></_>
        <_>
          <internalNodes>
            0 -1 212 6.8461720366030931e-04</internalNodes>
          <leafValues>
            7.8946575522422791e-02 -4.6200579404830933e-01</leafValues></_>
        <_>
          <internalNodes>
            0 -1 131 1.6727703623473644e-03</internalNodes>
          <leafValues>
            -1.4071671664714813e-01 2.6151093840599060e-01</leafValues></_>
        <_>
          <internalNodes>
            0 -1 342 6.2226136215031147e-03</internalNodes>
          <leafValues>
            9.5866970717906952e-02 -4.2485687136650085e-01</leafValues></_>
        <_>
          <internalNodes>
            0 -1 380 -2.2329764906316996e-03</internalNodes>
          <leafValues>
            6.2904793024063110e-01 -6.4308121800422668e-02</leafValues></_>
        <_>
          <internalNodes>
            0 -1 60 -3.5662590526044369e-03</internalNodes>
          <leafValues>
            3.3192312717437744e-01 -9.7030304372310638e-02</leafValues></_>
        <_>
          <internalNodes>
            0 -1 197 1.2345895171165466e-02</internalNodes>
          <leafValues>
            4.6595629304647446e-02 -7.6374161243438721e-01</leafValues></_>
        <_>
          <internalNodes>
            0 -1 421 7.1359645517077297e-05</internalNodes>
          <leafValues>
            -2.5665453076362610e-01 1.4323726296424866e-01</leafValues></_>
        <_>
          <internalNodes>
            0 -1 275 -2.7391430921852589e-03</internalNodes>
          <leafValues>
            5.4014045000076294e-01 -6.4589872956275940e-02</leafValues></_>
        <_>
          <internalNodes>
            0 -1 277 -5.5513822007924318e-04</internalNodes>
          <leafValues>
            -3.4978008270263672e-01 1.1718446016311646e-01</leafValues></_>
        <_>
          <internalNodes>
            0 -1 316 -6.8296387325972319e-04</internalNodes>
          <leafValues>
            3.3352601528167725e-01 -1.1120887100696564e-01</leafValues></_>
        <_>
          <internalNodes>
            0 -1 449 -1.6587721183896065e-03</internalNodes>
          <leafValues>
            -4.4917067885398865e-01 7.4103444814682007e-02</leafValues></_>
        <_>
          <internalNodes>
            0 -1 61 7.6007127063348889e-04</internalNodes>
          <leafValues>
            -1.5215763449668884e-01 2.1328836679458618e-01</leafValues></_>
        <_>
          <internalNodes>
            0 -1 348 2.4874927476048470e-03</internalNodes>
          <leafValues>
            -1.4985835552215576e-01 2.0641344785690308e-01</leafValues></_>
        <_>
          <internalNodes>
            0 -1 251 2.6683704927563667e-03</internalNodes>
          <leafValues>
            -4.3429460376501083e-02 7.6872801780700684e-01</leafValues></_>
        <_>
          <internalNodes>
            0 -1 143 -1.6927378601394594e-04</internalNodes>
          <leafValues>
            1.5618182718753815e-01 -1.9407412409782410e-01</leafValues></_>
        <_>
          <internalNodes>
            0 -1 120 7.6449690386652946e-03</internalNodes>
          <leafValues>
            -8.2422628998756409e-02 4.1994196176528931e-01</leafValues></_>
        <_>
          <internalNodes>
            0 -1 358 -1.6158256912603974e-03</internalNodes>
          <leafValues>
            -3.0122688412666321e-01 1.0808941721916199e-01</leafValues></_>
        <_>
          <internalNodes>
            0 -1 404 -4.5711535494774580e-04</internalNodes>
          <leafValues>
            1.2958899140357971e-01 -2.2212855517864227e-01</leafValues></_>
        <_>
          <internalNodes>
            0 -1 223 9.1530970530584455e-04</internalNodes>
          <leafValues>
            -1.9410997629165649e-01 1.5986202657222748e-01</leafValues></_>
        <_>
          <internalNodes>
            0 -1 219 3.3634828869253397e-03</internalNodes>
          <leafValues>
            -1.2483861297369003e-01 3.4581935405731201e-01</leafValues></_>
        <_>
          <internalNodes>
            0 -1 288 -5.2096933359280229e-04</internalNodes>
          <leafValues>
            -3.0902543663978577e-01 1.0579328984022141e-01</leafValues></_>
        <_>
          <internalNodes>
            0 -1 459 -3.5498414945323020e-05</internalNodes>
          <leafValues>
            1.3316600024700165e-01 -2.3248751461505890e-01</leafValues></_>
        <_>
          <internalNodes>
            0 -1 461 2.5792431551963091e-04</internalNodes>
          <leafValues>
            -1.4298436045646667e-01 2.0534251630306244e-01</leafValues></_>
        <_>
          <internalNodes>
            0 -1 167 -1.0668557370081544e-03</internalNodes>
          <leafValues>
            -3.6994576454162598e-01 8.5779756307601929e-02</leafValues></_>
        <_>
          <internalNodes>
            0 -1 158 -1.8544938415288925e-02</internalNodes>
          <leafValues>
            5.1548659801483154e-01 -5.9066053479909897e-02</leafValues></_>
        <_>
          <internalNodes>
            0 -1 463 -6.8902829661965370e-03</internalNodes>
          <leafValues>
            6.8109527230262756e-02 -4.9332591891288757e-01</leafValues></_>
        <_>
          <internalNodes>
            0 -1 259 6.6072226036339998e-04</internalNodes>
          <leafValues>
            5.2712894976139069e-02 -4.9198329448699951e-01</leafValues></_>
        <_>
          <internalNodes>
            0 -1 352 2.8914841823279858e-03</internalNodes>
          <leafValues>
            -1.0012765973806381e-01 2.9504910111427307e-01</leafValues></_>
        <_>
          <internalNodes>
            0 -1 268 7.7852990943938494e-04</internalNodes>
          <leafValues>
            8.4402918815612793e-02 -3.2822105288505554e-01</leafValues></_>
        <_>
          <internalNodes>
            0 -1 388 -3.7569245323538780e-03</internalNodes>
          <leafValues>
            3.1904676556587219e-01 -9.6554644405841827e-02</leafValues></_>
        <_>
          <internalNodes>
            0 -1 406 1.6251081251539290e-04</internalNodes>
          <leafValues>
            -1.7560698091983795e-01 1.5420545637607574e-01</leafValues></_>
        <_>
          <internalNodes>
            0 -1 478 5.0961191300302744e-04</internalNodes>
          <leafValues>
            1.0415044426918030e-01 -2.7531865239143372e-01</leafValues></_>
        <_>
          <internalNodes>
            0 -1 296 -2.4121671449393034e-03</internalNodes>
          <leafValues>
            4.9516510963439941e-01 -6.0316115617752075e-02</leafValues></_>
        <_>
          <internalNodes>
            0 -1 178 5.7773929089307785e-02</internalNodes>
          <leafValues>
            9.2282265424728394e-02 -3.2172983884811401e-01</leafValues></_>
        <_>
          <internalNodes>
            0 -1 301 4.4952249154448509e-03</internalNodes>
          <leafValues>
            -1.0062050074338913e-01 2.7934402227401733e-01</leafValues></_>
        <_>
          <internalNodes>
            0 -1 199 3.8129196036607027e-04</internalNodes>
          <leafValues>
            7.6300613582134247e-02 -3.7658128142356873e-01</leafValues></_>
        <_>
          <internalNodes>
            0 -1 10 -1.2095719575881958e-01</internalNodes>
          <leafValues>
            -5.3840309381484985e-01 5.2253838628530502e-02</leafValues></_>
        <_>
          <internalNodes>
            0 -1 296 8.7659916607663035e-04</internalNodes>
          <leafValues>
            -7.4317604303359985e-02 3.9415070414543152e-01</leafValues></_>
        <_>
          <internalNodes>
            0 -1 172 7.5783580541610718e-04</internalNodes>
          <leafValues>
            6.9277606904506683e-02 -4.2434459924697876e-01</leafValues></_>
        <_>
          <internalNodes>
            0 -1 399 -6.2974859029054642e-03</internalNodes>
          <leafValues>
            -3.8009819388389587e-01 6.9046184420585632e-02</leafValues></_>
        <_>
          <internalNodes>
            0 -1 391 -4.8714242439018562e-05</internalNodes>
          <leafValues>
            1.4750841259956360e-01 -2.0490273833274841e-01</leafValues></_>
        <_>
          <internalNodes>
            0 -1 389 -3.7915678694844246e-04</internalNodes>
          <leafValues>
            -3.0806010961532593e-01 9.4239480793476105e-02</leafValues></_>
        <_>
          <internalNodes>
            0 -1 270 3.1954112928360701e-03</internalNodes>
          <leafValues>
            -1.4878757297992706e-01 1.9605146348476410e-01</leafValues></_>
        <_>
          <internalNodes>
            0 -1 124 3.9489688351750374e-03</internalNodes>
          <leafValues>
            -7.0214696228504181e-02 3.9647281169891357e-01</leafValues></_>
        <_>
          <internalNodes>
            0 -1 159 1.7999637871980667e-02</internalNodes>
          <leafValues>
            4.0298674255609512e-02 -7.6778644323348999e-01</leafValues></_>
        <_>
          <internalNodes>
            0 -1 436 -3.7525901570916176e-03</internalNodes>
          <leafValues>
            2.7193486690521240e-01 -1.1532896757125854e-01</leafValues></_>
        <_>
          <internalNodes>
            0 -1 518 1.7807562835514545e-03</internalNodes>
          <leafValues>
            5.1208086311817169e-02 -5.4882258176803589e-01</leafValues></_>
        <_>
          <internalNodes>
            0 -1 7 7.5206591282039881e-04</internalNodes>
          <leafValues>
            -2.1492788195610046e-01 1.1852690577507019e-01</leafValues></_>
        <_>
          <internalNodes>
            0 -1 16 7.3331320891156793e-05</internalNodes>
          <leafValues>
            1.6634567081928253e-01 -1.7150661349296570e-01</leafValues></_>
        <_>
          <internalNodes>
            0 -1 451 -3.3353501930832863e-03</internalNodes>
          <leafValues>
            -3.3969342708587646e-01 7.6586991548538208e-02</leafValues></_>
        <_>
          <internalNodes>
            0 -1 69 1.9304954912513494e-03</internalNodes>
          <leafValues>
            -1.2418854236602783e-01 2.2328411042690277e-01</leafValues></_>
        <_>
          <internalNodes>
            0 -1 22 -9.0783182531595230e-03</internalNodes>
          <leafValues>
            3.5423386096954346e-01 -8.0222323536872864e-02</leafValues></_>
        <_>
          <internalNodes>
            0 -1 46 -1.1615427210927010e-03</internalNodes>
          <leafValues>
            -6.4238858222961426e-01 4.4330243021249771e-02</leafValues></_>
        <_>
          <internalNodes>
            0 -1 488 -2.2468366660177708e-04</internalNodes>
          <leafValues>
            -2.0397937297821045e-01 1.2215233594179153e-01</leafValues></_>
        <_>
          <internalNodes>
            0 -1 372 -1.9325750181451440e-03</internalNodes>
          <leafValues>
            4.6526533365249634e-01 -5.4948180913925171e-02</leafValues></_>
        <_>
          <internalNodes>
            0 -1 365 -1.2623122893273830e-03</internalNodes>
          <leafValues>
            3.5196271538734436e-01 -7.2681806981563568e-02</leafValues></_>
        <_>
          <internalNodes>
            0 -1 267 -1.4428101712837815e-04</internalNodes>
          <leafValues>
            -2.5264909863471985e-01 1.1591607332229614e-01</leafValues></_>
        <_>
          <internalNodes>
            0 -1 207 -1.0178083926439285e-01</internalNodes>
          <leafValues>
            -2.0212246477603912e-01 1.4461790025234222e-01</leafValues></_>
        <_>
          <internalNodes>
            0 -1 238 -3.1103041023015976e-02</internalNodes>
          <leafValues>
            3.0329767614603043e-02 -8.3243542909622192e-01</leafValues></_>
        <_>
          <internalNodes>
            0 -1 156 -1.2874660314992070e-03</internalNodes>
          <leafValues>
            2.2714997828006744e-01 -1.2075403332710266e-01</leafValues></_>
        <_>
          <internalNodes>
            0 -1 345 2.1561291068792343e-03</internalNodes>
          <leafValues>
            -4.6798843890428543e-02 5.4738008975982666e-01</leafValues></_>
        <_>
          <internalNodes>
            0 -1 164 -8.5639450699090958e-03</internalNodes>
          <leafValues>
            -6.0356491804122925e-01 4.7085046768188477e-02</leafValues></_></weakClassifiers></_>
    <!-- stage 6 -->
    <_>
      <maxWeakCount>90</maxWeakCount>
      <stageThreshold>-1.3623486757278442e+00</stageThreshold>
      <weakClassifiers>
        <_>
          <internalNodes>
            0 -1 246 -2.8172843158245087e-03</internalNodes>
          <leafValues>
            3.6785328388214111e-01 -4.9156117439270020e-01</leafValues></_>
        <_>
          <internalNodes>
            0 -1 294 8.5507035255432129e-03</internalNodes>
          <leafValues>
            -3.0704960227012634e-01 2.9892972111701965e-01</leafValues></_>
        <_>
          <internalNodes>
            0 -1 230 1.5457780682481825e-04</internalNodes>
          <leafValues>
            8.2510635256767273e-02 -7.1123820543289185e-01</leafValues></_>
        <_>
          <internalNodes>
            0 -1 185 -6.0759698972105980e-03</internalNodes>
          <leafValues>
            -3.9782378077507019e-01 1.5425442159175873e-01</leafValues></_>
        <_>
          <internalNodes>
            0 -1 274 -5.5967760272324085e-04</internalNodes>
          <leafValues>
            4.9570256471633911e-01 -9.1352134943008423e-02</leafValues></_>
        <_>
          <internalNodes>
            0 -1 141 -3.1742174178361893e-02</internalNodes>
          <leafValues>
            2.7476510405540466e-01 -2.2230499982833862e-01</leafValues></_>
        <_>
          <internalNodes>
            0 -1 245 6.2521256040781736e-04</internalNodes>
          <leafValues>
            7.3701836168766022e-02 -5.6894725561141968e-01</leafValues></_>
        <_>
          <internalNodes>
            0 -1 232 1.6612712061032653e-03</internalNodes>
          <leafValues>
            -7.8032724559307098e-02 4.7573152184486389e-01</leafValues></_>
        <_>
          <internalNodes>
            0 -1 428 -1.5294214710593224e-02</internalNodes>
          <leafValues>
            2.5021514296531677e-01 -1.9972480833530426e-01</leafValues></_>
        <_>
          <internalNodes>
            0 -1 239 4.5212144032120705e-03</internalNodes>
          <leafValues>
            7.2483047842979431e-02 -5.5058532953262329e-01</leafValues></_>
        <_>
          <internalNodes>
            0 -1 283 -1.2052638456225395e-02</internalNodes>
          <leafValues>
            -4.4359287619590759e-01 9.3960829079151154e-02</leafValues></_>
        <_>
          <internalNodes>
            0 -1 87 4.1647136211395264e-02</internalNodes>
          <leafValues>
            -6.5621145069599152e-02 6.2700265645980835e-01</leafValues></_>
        <_>
          <internalNodes>
            0 -1 59 -4.6865355223417282e-02</internalNodes>
          <leafValues>
            4.2274108529090881e-01 -9.8431430757045746e-02</leafValues></_>
        <_>
          <internalNodes>
            0 -1 254 -7.8128452878445387e-04</internalNodes>
          <leafValues>
            -5.1287764310836792e-01 5.8196365833282471e-02</leafValues></_>
        <_>
          <internalNodes>
            0 -1 278 2.7209834661334753e-04</internalNodes>
          <leafValues>
            5.9926472604274750e-02 -5.5532652139663696e-01</leafValues></_>
        <_>
          <internalNodes>
            0 -1 216 -1.7407627310603857e-03</internalNodes>
          <leafValues>
            4.7370132803916931e-01 -7.9937517642974854e-02</leafValues></_>
        <_>
          <internalNodes>
            0 -1 486 3.9355974877253175e-05</internalNodes>
          <leafValues>
            -1.7466349899768829e-01 1.9512501358985901e-01</leafValues></_>
        <_>
          <internalNodes>
            0 -1 241 -4.4280473957769573e-04</internalNodes>
          <leafValues>
            -5.2070969343185425e-01 4.7168750315904617e-02</leafValues></_>
        <_>
          <internalNodes>
            0 -1 279 -3.4459764719940722e-05</internalNodes>
          <leafValues>
            1.8071819841861725e-01 -1.5615221858024597e-01</leafValues></_>
        <_>
          <internalNodes>
            0 -1 234 -1.1751877900678664e-04</internalNodes>
          <leafValues>
            1.0837037861347198e-01 -2.9379659891128540e-01</leafValues></_>
        <_>
          <internalNodes>
            0 -1 215 3.7695269566029310e-04</internalNodes>
          <leafValues>
            8.7023615837097168e-02 -3.3071723580360413e-01</leafValues></_>
        <_>
          <internalNodes>
            0 -1 273 1.3309086207300425e-03</internalNodes>
          <leafValues>
            -9.4433128833770752e-02 3.5287305712699890e-01</leafValues></_>
        <_>
          <internalNodes>
            0 -1 215 -8.5128506179898977e-04</internalNodes>
          <leafValues>
            -5.1840567588806152e-01 6.2394898384809494e-02</leafValues></_>
        <_>
          <internalNodes>
            0 -1 365 -2.9974172357469797e-03</internalNodes>
          <leafValues>
            5.4639315605163574e-01 -5.2404940128326416e-02</leafValues></_>
        <_>
          <internalNodes>
            0 -1 71 6.9017591886222363e-04</internalNodes>
          <leafValues>
            -1.2636871635913849e-01 2.1416746079921722e-01</leafValues></_>
        <_>
          <internalNodes>
            0 -1 459 1.1199516011402011e-03</internalNodes>
          <leafValues>
            9.0743117034435272e-02 -3.6700898408889771e-01</leafValues></_>
        <_>
          <internalNodes>
            0 -1 304 1.4053152874112129e-02</internalNodes>
          <leafValues>
            7.1087755262851715e-02 -3.8531863689422607e-01</leafValues></_>
        <_>
          <internalNodes>
            0 -1 100 1.9670058973133564e-03</internalNodes>
          <leafValues>
            -1.5951667726039886e-01 1.7521207034587860e-01</leafValues></_>
        <_>
          <internalNodes>
            0 -1 167 2.1421942801680416e-04</internalNodes>
          <leafValues>
            1.0703632980585098e-01 -3.1971356272697449e-01</leafValues></_>
        <_>
          <internalNodes>
            0 -1 318 1.7502271803095937e-03</internalNodes>
          <leafValues>
            -9.5510460436344147e-02 3.4491622447967529e-01</leafValues></_>
        <_>
          <internalNodes>
            0 -1 106 -6.5009086392819881e-04</internalNodes>
          <leafValues>
            1.9879306852817535e-01 -1.6498960554599762e-01</leafValues></_>
        <_>
          <internalNodes>
            0 -1 98 -3.5734325647354126e-02</internalNodes>
          <leafValues>
            -4.9930229783058167e-01 6.3023477792739868e-02</leafValues></_>
        <_>
          <internalNodes>
            0 -1 204 -1.9765230827033520e-03</internalNodes>
          <leafValues>
            3.2230311632156372e-01 -1.1779362708330154e-01</leafValues></_>
        <_>
          <internalNodes>
            0 -1 427 4.3572718277573586e-03</internalNodes>
          <leafValues>
            -1.6329930722713470e-01 1.8881715834140778e-01</leafValues></_>
        <_>
          <internalNodes>
            0 -1 394 -4.4432730646803975e-04</internalNodes>
          <leafValues>
            1.6045249998569489e-01 -1.7574745416641235e-01</leafValues></_>
        <_>
          <internalNodes>
            0 -1 241 1.0722519364207983e-03</internalNodes>
          <leafValues>
            3.2139901071786880e-02 -9.3417334556579590e-01</leafValues></_>
        <_>
          <internalNodes>
            0 -1 222 1.8799263052642345e-03</internalNodes>
          <leafValues>
            -7.4755378067493439e-02 4.4380822777748108e-01</leafValues></_>
        <_>
          <internalNodes>
            0 -1 447 4.2428396409377456e-04</internalNodes>
          <leafValues>
            8.8305249810218811e-02 -3.4132024645805359e-01</leafValues></_>
        <_>
          <internalNodes>
            0 -1 442 -5.8892569504678249e-03</internalNodes>
          <leafValues>
            3.1196531653404236e-01 -9.7085304558277130e-02</leafValues></_>
        <_>
          <internalNodes>
            0 -1 498 3.9473641663789749e-05</internalNodes>
          <leafValues>
            -1.5312521159648895e-01 2.1475528180599213e-01</leafValues></_>
        <_>
          <internalNodes>
            0 -1 8 2.1738536815973930e-05</internalNodes>
          <leafValues>
            -2.1035903692245483e-01 1.1737416684627533e-01</leafValues></_>
        <_>
          <internalNodes>
            0 -1 38 4.8032816266641021e-04</internalNodes>
          <leafValues>
            1.0630305856466293e-01 -2.5520417094230652e-01</leafValues></_>
        <_>
          <internalNodes>
            0 -1 250 9.1943545266985893e-03</internalNodes>
          <leafValues>
            3.1002517789602280e-02 -8.0329006910324097e-01</leafValues></_>
        <_>
          <internalNodes>
            0 -1 302 -6.5318327397108078e-03</internalNodes>
          <leafValues>
            2.2533431649208069e-01 -1.1537507921457291e-01</leafValues></_>
        <_>
          <internalNodes>
            0 -1 381 -1.0010155383497477e-03</internalNodes>
          <leafValues>
            -4.3187093734741211e-01 6.5368540585041046e-02</leafValues></_>
        <_>
          <internalNodes>
            0 -1 182 -2.3696418793406337e-04</internalNodes>
          <leafValues>
            2.4454374611377716e-01 -1.1844277381896973e-01</leafValues></_>
        <_>
          <internalNodes>
            0 -1 188 1.3129171566106379e-04</internalNodes>
          <leafValues>
            -1.4475989341735840e-01 1.7088812589645386e-01</leafValues></_>
        <_>
          <internalNodes>
            0 -1 103 9.8949007224291563e-05</internalNodes>
          <leafValues>
            1.3901557028293610e-01 -1.9618429243564606e-01</leafValues></_>
        <_>
          <internalNodes>
            0 -1 391 -1.8562061013653874e-03</internalNodes>
          <leafValues>
            -3.3414480090141296e-01 7.3912970721721649e-02</leafValues></_>
        <_>
          <internalNodes>
            0 -1 379 9.8903384059667587e-04</internalNodes>
          <leafValues>
            -1.3272866606712341e-01 1.8912558257579803e-01</leafValues></_>
        <_>
          <internalNodes>
            0 -1 408 -6.9271936081349850e-04</internalNodes>
          <leafValues>
            -2.7998879551887512e-01 9.8321370780467987e-02</leafValues></_>
        <_>
          <internalNodes>
            0 -1 228 -1.6327921301126480e-02</internalNodes>
          <leafValues>
            -5.3691804409027100e-01 4.3038338422775269e-02</leafValues></_>
        <_>
          <internalNodes>
            0 -1 217 1.3546108966693282e-03</internalNodes>
          <leafValues>
            -1.8974196910858154e-01 1.2964485585689545e-01</leafValues></_>
        <_>
          <internalNodes>
            0 -1 284 1.1868777219206095e-03</internalNodes>
          <leafValues>
            -7.8672595322132111e-02 4.2540395259857178e-01</leafValues></_>
        <_>
          <internalNodes>
            0 -1 504 1.0291889775544405e-03</internalNodes>
          <leafValues>
            7.1124315261840820e-02 -3.7243717908859253e-01</leafValues></_>
        <_>
          <internalNodes>
            0 -1 89 -2.1044677123427391e-03</internalNodes>
          <leafValues>
            2.9109224677085876e-01 -8.7050311267375946e-02</leafValues></_>
        <_>
          <internalNodes>
            0 -1 88 3.7275144131854177e-04</internalNodes>
          <leafValues>
            9.9922470748424530e-02 -2.8504037857055664e-01</leafValues></_>
        <_>
          <internalNodes>
            0 -1 47 1.2066775932908058e-02</internalNodes>
          <leafValues>
            -5.4049327969551086e-02 5.1270788908004761e-01</leafValues></_>
        <_>
          <internalNodes>
            0 -1 298 -2.7260571368969977e-04</internalNodes>
          <leafValues>
            2.3304571211338043e-01 -1.0737674683332443e-01</leafValues></_>
        <_>
          <internalNodes>
            0 -1 448 8.0879463348537683e-04</internalNodes>
          <leafValues>
            7.6972253620624542e-02 -3.1436789035797119e-01</leafValues></_>
        <_>
          <internalNodes>
            0 -1 297 7.2330539114773273e-04</internalNodes>
          <leafValues>
            -1.2962840497493744e-01 2.3816724121570587e-01</leafValues></_>
        <_>
          <internalNodes>
            0 -1 235 -1.8951306119561195e-03</internalNodes>
          <leafValues>
            -3.9690536260604858e-01 6.6000722348690033e-02</leafValues></_>
        <_>
          <internalNodes>
            0 -1 230 -1.7366650354233570e-05</internalNodes>
          <leafValues>
            7.3668979108333588e-02 -3.6843657493591309e-01</leafValues></_>
        <_>
          <internalNodes>
            0 -1 392 2.2920153569430113e-03</internalNodes>
          <leafValues>
            -1.2197761237621307e-01 2.4879334867000580e-01</leafValues></_>
        <_>
          <internalNodes>
            0 -1 285 -9.5217507332563400e-03</internalNodes>
          <leafValues>
            3.2781541347503662e-02 -8.0034071207046509e-01</leafValues></_>
        <_>
          <internalNodes>
            0 -1 330 -3.7701167166233063e-03</internalNodes>
          <leafValues>
            4.0520936250686646e-01 -7.0897981524467468e-02</leafValues></_>
        <_>
          <internalNodes>
            0 -1 368 1.0423462837934494e-02</internalNodes>
          <leafValues>
            6.0361206531524658e-02 -4.7629013657569885e-01</leafValues></_>
        <_>
          <internalNodes>
            0 -1 392 -5.4421685636043549e-03</internalNodes>
          <leafValues>
            5.3435403108596802e-01 -5.1757778972387314e-02</leafValues></_>
        <_>
          <internalNodes>
            0 -1 96 3.4103088080883026e-02</internalNodes>
          <leafValues>
            5.4473645985126495e-02 -5.2749258279800415e-01</leafValues></_>
        <_>
          <internalNodes>
            0 -1 375 -1.4203026890754700e-02</internalNodes>
          <leafValues>
            -6.3472336530685425e-01 3.2824542373418808e-02</leafValues></_>
        <_>
          <internalNodes>
            0 -1 149 4.5013200724497437e-04</internalNodes>
          <leafValues>
            6.5963678061962128e-02 -3.5975861549377441e-01</leafValues></_>
        <_>
          <internalNodes>
            0 -1 457 -5.0939274951815605e-03</internalNodes>
          <leafValues>
            1.8132239580154419e-01 -1.2271574139595032e-01</leafValues></_>
        <_>
          <internalNodes>
            0 -1 110 -1.7167985206469893e-03</internalNodes>
          <leafValues>
            -2.1043729782104492e-01 1.1612832546234131e-01</leafValues></_>
        <_>
          <internalNodes>
            0 -1 385 -1.4719371392857283e-04</internalNodes>
          <leafValues>
            2.0641055703163147e-01 -1.1544784158468246e-01</leafValues></_>
        <_>
          <internalNodes>
            0 -1 200 3.3383825211785734e-04</internalNodes>
          <leafValues>
            7.1160912513732910e-02 -3.1397718191146851e-01</leafValues></_>
        <_>
          <internalNodes>
            0 -1 182 1.1440296657383442e-03</internalNodes>
          <leafValues>
            -7.9770840704441071e-02 3.2378375530242920e-01</leafValues></_>
        <_>
          <internalNodes>
            0 -1 187 8.5840452811680734e-05</internalNodes>
          <leafValues>
            -1.1029721051454544e-01 2.2956053912639618e-01</leafValues></_>
        <_>
          <internalNodes>
            0 -1 489 1.9386587664484978e-03</internalNodes>
          <leafValues>
            5.2101299166679382e-02 -4.7687178850173950e-01</leafValues></_>
        <_>
          <internalNodes>
            0 -1 376 1.1425132863223553e-02</internalNodes>
          <leafValues>
            4.3581876903772354e-02 -4.6375596523284912e-01</leafValues></_>
        <_>
          <internalNodes>
            0 -1 509 -1.5304161934182048e-03</internalNodes>
          <leafValues>
            2.2560198605060577e-01 -1.1378870159387589e-01</leafValues></_>
        <_>
          <internalNodes>
            0 -1 0 2.7384115383028984e-03</internalNodes>
          <leafValues>
            3.7257321178913116e-02 -6.2350767850875854e-01</leafValues></_>
        <_>
          <internalNodes>
            0 -1 112 -1.3153648003935814e-02</internalNodes>
          <leafValues>
            -2.9165381193161011e-01 7.4864588677883148e-02</leafValues></_>
        <_>
          <internalNodes>
            0 -1 289 7.9482663422822952e-03</internalNodes>
          <leafValues>
            -7.9625971615314484e-02 2.8900676965713501e-01</leafValues></_>
        <_>
          <internalNodes>
            0 -1 465 8.0078832979779691e-05</internalNodes>
          <leafValues>
            -1.5572924911975861e-01 1.5709814429283142e-01</leafValues></_>
        <_>
          <internalNodes>
            0 -1 510 -7.9583056503906846e-04</internalNodes>
          <leafValues>
            -4.4598224759101868e-01 5.2401762455701828e-02</leafValues></_>
        <_>
          <internalNodes>
            0 -1 508 2.6985686272382736e-03</internalNodes>
          <leafValues>
            -4.1241645812988281e-02 5.9495812654495239e-01</leafValues></_>
        <_>
          <internalNodes>
            0 -1 9 2.4990374222397804e-03</internalNodes>
          <leafValues>
            -7.5714558362960815e-02 2.7461656928062439e-01</leafValues></_>
        <_>
          <internalNodes>
            0 -1 347 6.9363799411803484e-05</internalNodes>
          <leafValues>
            1.1258821934461594e-01 -2.0863288640975952e-01</leafValues></_>
        <_>
          <internalNodes>
            0 -1 325 6.6591915674507618e-04</internalNodes>
          <leafValues>
            5.9062164276838303e-02 -3.7050881981849670e-01</leafValues></_>
        <_>
          <internalNodes>
            0 -1 473 -1.1725801741704345e-03</internalNodes>
          <leafValues>
            2.0281057059764862e-01 -1.1010383069515228e-01</leafValues></_></weakClassifiers></_>
    <!-- stage 7 -->
    <_>
      <maxWeakCount>100</maxWeakCount>
      <stageThreshold>-1.3417711257934570e+00</stageThreshold>
      <weakClassifiers>
        <_>
          <internalNodes>
            0 -1 265 3.6829367280006409e-02</internalNodes>
          <leafValues>
            -3.8400334119796753e-01 4.8972100019454956e-01</leafValues></_>
        <_>
          <internalNodes>
            0 -1 445 -2.7527341619133949e-02</internalNodes>
          <leafValues>
            3.1167861819267273e-01 -2.5929492712020874e-01</leafValues></_>
        <_>
          <internalNodes>
            0 -1 194 -4.6099291648715734e-04</internalNodes>
          <leafValues>
            1.5847715735435486e-01 -4.3232804536819458e-01</leafValues></_>
        <_>
          <internalNodes>
            0 -1 102 -3.7326283752918243e-02</internalNodes>
          <leafValues>
            5.1826429367065430e-01 -6.2611736357212067e-02</leafValues></_>
        <_>
          <internalNodes>
            0 -1 33 4.1341427713632584e-02</internalNodes>
          <leafValues>
            -1.7804634571075439e-01 4.0703335404396057e-01</leafValues></_>
        <_>
          <internalNodes>
            0 -1 278 -4.9005786422640085e-04</internalNodes>
          <leafValues>
            -2.9934605956077576e-01 1.6467797756195068e-01</leafValues></_>
        <_>
          <internalNodes>
            0 -1 91 -1.0595412459224463e-03</internalNodes>
          <leafValues>
            1.6395807266235352e-01 -2.3955532908439636e-01</leafValues></_>
        <_>
          <internalNodes>
            0 -1 92 -5.5892523378133774e-03</internalNodes>
          <leafValues>
            3.0878195166587830e-01 -8.3429686725139618e-02</leafValues></_>
        <_>
          <internalNodes>
            0 -1 235 2.0961122936569154e-04</internalNodes>
          <leafValues>
            1.9004287198185921e-02 -6.6709780693054199e-01</leafValues></_>
        <_>
          <internalNodes>
            0 -1 317 3.3544849429745227e-05</internalNodes>
          <leafValues>
            -1.6959966719150543e-01 1.9807064533233643e-01</leafValues></_>
        <_>
          <internalNodes>
            0 -1 186 1.4242522418498993e-02</internalNodes>
          <leafValues>
            6.7226640880107880e-02 -4.2752480506896973e-01</leafValues></_>
        <_>
          <internalNodes>
            0 -1 314 -3.4656716161407530e-04</internalNodes>
          <leafValues>
            2.2034375369548798e-01 -1.3675554096698761e-01</leafValues></_>
        <_>
          <internalNodes>
            0 -1 384 4.3578736484050751e-02</internalNodes>
          <leafValues>
            -1.1292248219251633e-01 2.9383736848831177e-01</leafValues></_>
        <_>
          <internalNodes>
            0 -1 396 -1.8333314801566303e-04</internalNodes>
          <leafValues>
            1.3011914491653442e-01 -2.2015516459941864e-01</leafValues></_>
        <_>
          <internalNodes>
            0 -1 413 -6.0286314692348242e-05</internalNodes>
          <leafValues>
            1.4824266731739044e-01 -2.4880166351795197e-01</leafValues></_>
        <_>
          <internalNodes>
            0 -1 20 5.1750399172306061e-02</internalNodes>
          <leafValues>
            -6.9327890872955322e-02 5.5448770523071289e-01</leafValues></_>
        <_>
          <internalNodes>
            0 -1 68 6.8973135203123093e-03</internalNodes>
          <leafValues>
            -1.0574594140052795e-01 2.5456342101097107e-01</leafValues></_>
        <_>
          <internalNodes>
            0 -1 300 -1.3609971851110458e-02</internalNodes>
          <leafValues>
            5.1332429051399231e-02 -5.5193912982940674e-01</leafValues></_>
        <_>
          <internalNodes>
            0 -1 93 3.3059208653867245e-03</internalNodes>
          <leafValues>
            -1.0941445827484131e-01 2.5572428107261658e-01</leafValues></_>
        <_>
          <internalNodes>
            0 -1 513 -2.8204204863868654e-04</internalNodes>
          <leafValues>
            -2.4683640897274017e-01 1.1557023972272873e-01</leafValues></_>
        <_>
          <internalNodes>
            0 -1 170 1.0172175243496895e-03</internalNodes>
          <leafValues>
            -1.4131832122802734e-01 1.7928053438663483e-01</leafValues></_>
        <_>
          <internalNodes>
            0 -1 254 8.7076879572123289e-04</internalNodes>
          <leafValues>
            6.1086561530828476e-02 -4.5782962441444397e-01</leafValues></_>
        <_>
          <internalNodes>
            0 -1 413 -6.7475526593625546e-03</internalNodes>
          <leafValues>
            -4.7884726524353027e-01 4.8199802637100220e-02</leafValues></_>
        <_>
          <internalNodes>
            0 -1 362 2.9325131326913834e-03</internalNodes>
          <leafValues>
            -6.6853635013103485e-02 3.8594561815261841e-01</leafValues></_>
        <_>
          <internalNodes>
            0 -1 166 2.7462688740342855e-04</internalNodes>
          <leafValues>
            7.9776369035243988e-02 -3.1969183683395386e-01</leafValues></_>
        <_>
          <internalNodes>
            0 -1 232 -1.4549276093021035e-03</internalNodes>
          <leafValues>
            1.3825061917304993e-01 -1.7479349672794342e-01</leafValues></_>
        <_>
          <internalNodes>
            0 -1 309 -1.3157138600945473e-03</internalNodes>
          <leafValues>
            3.0785891413688660e-01 -8.9073397219181061e-02</leafValues></_>
        <_>
          <internalNodes>
            0 -1 5 1.1528166010975838e-02</internalNodes>
          <leafValues>
            -1.3768790662288666e-01 1.7509990930557251e-01</leafValues></_>
        <_>
          <internalNodes>
            0 -1 441 -3.8109628803795204e-05</internalNodes>
          <leafValues>
            1.1738103628158569e-01 -2.0125448703765869e-01</leafValues></_>
        <_>
          <internalNodes>
            0 -1 441 -2.4138712324202061e-03</internalNodes>
          <leafValues>
            -2.9705372452735901e-01 9.5382697880268097e-02</leafValues></_>
        <_>
          <internalNodes>
            0 -1 222 2.9604605515487492e-04</internalNodes>
          <leafValues>
            -1.0890009999275208e-01 2.2343830764293671e-01</leafValues></_>
        <_>
          <internalNodes>
            0 -1 222 -2.7625972870737314e-04</internalNodes>
          <leafValues>
            2.0488227903842926e-01 -1.3329072296619415e-01</leafValues></_>
        <_>
          <internalNodes>
            0 -1 272 7.7050121035426855e-04</internalNodes>
          <leafValues>
            7.1800582110881805e-02 -3.9683768153190613e-01</leafValues></_>
        <_>
          <internalNodes>
            0 -1 165 -2.3545727133750916e-02</internalNodes>
          <leafValues>
            -7.2715115547180176e-01 2.5870958343148232e-02</leafValues></_>
        <_>
          <internalNodes>
            0 -1 517 -1.6716396203264594e-04</internalNodes>
          <leafValues>
            -2.2669601440429688e-01 9.7491674125194550e-02</leafValues></_>
        <_>
          <internalNodes>
            0 -1 226 -2.1560639142990112e-03</internalNodes>
          <leafValues>
            1.4052876830101013e-01 -1.6428768634796143e-01</leafValues></_>
        <_>
          <internalNodes>
            0 -1 246 8.5516646504402161e-04</internalNodes>
          <leafValues>
            -9.3934327363967896e-02 2.8606289625167847e-01</leafValues></_>
        <_>
          <internalNodes>
            0 -1 48 -9.7076021134853363e-02</internalNodes>
          <leafValues>
            -2.2633281350135803e-01 1.2091315537691116e-01</leafValues></_>
        <_>
          <internalNodes>
            0 -1 177 4.8450887203216553e-02</internalNodes>
          <leafValues>
            4.9536492675542831e-02 -4.4831788539886475e-01</leafValues></_>
        <_>
          <internalNodes>
            0 -1 373 2.8484100475907326e-03</internalNodes>
          <leafValues>
            -6.7310228943824768e-02 3.5469153523445129e-01</leafValues></_>
        <_>
          <internalNodes>
            0 -1 492 -3.9639353053644300e-04</internalNodes>
          <leafValues>
            -2.9430481791496277e-01 8.0724030733108521e-02</leafValues></_>
        <_>
          <internalNodes>
            0 -1 320 6.9233565591275692e-04</internalNodes>
          <leafValues>
            6.4048700034618378e-02 -3.5547813773155212e-01</leafValues></_>
        <_>
          <internalNodes>
            0 -1 344 -5.9288758784532547e-03</internalNodes>
          <leafValues>
            4.0141543745994568e-01 -5.7625271379947662e-02</leafValues></_>
        <_>
          <internalNodes>
            0 -1 333 1.0075345635414124e-03</internalNodes>
          <leafValues>
            -1.7456117272377014e-01 1.5677194297313690e-01</leafValues></_>
        <_>
          <internalNodes>
            0 -1 521 -2.2047664970159531e-03</internalNodes>
          <leafValues>
            -5.1314681768417358e-01 3.9807721972465515e-02</leafValues></_>
        <_>
          <internalNodes>
            0 -1 240 1.7326310276985168e-02</internalNodes>
          <leafValues>
            3.2330729067325592e-02 -6.8006575107574463e-01</leafValues></_>
        <_>
          <internalNodes>
            0 -1 138 8.4227952174842358e-04</internalNodes>
          <leafValues>
            -9.2955440282821655e-02 2.5992769002914429e-01</leafValues></_>
        <_>
          <internalNodes>
            0 -1 298 -1.6633464256301522e-03</internalNodes>
          <leafValues>
            4.2504686117172241e-01 -4.6571031212806702e-02</leafValues></_>
        <_>
          <internalNodes>
            0 -1 65 3.6956119583919644e-04</internalNodes>
          <leafValues>
            8.5472203791141510e-02 -2.9365432262420654e-01</leafValues></_>
        <_>
          <internalNodes>
            0 -1 456 -9.5344055444002151e-03</internalNodes>
          <leafValues>
            3.1516700983047485e-02 -6.8341666460037231e-01</leafValues></_>
        <_>
          <internalNodes>
            0 -1 499 3.8413483707699925e-05</internalNodes>
          <leafValues>
            -1.3629701733589172e-01 1.6088211536407471e-01</leafValues></_>
        <_>
          <internalNodes>
            0 -1 291 4.6414267271757126e-03</internalNodes>
          <leafValues>
            -1.2012712657451630e-01 1.8954744935035706e-01</leafValues></_>
        <_>
          <internalNodes>
            0 -1 228 -2.0099990069866180e-02</internalNodes>
          <leafValues>
            -6.8825483322143555e-01 3.5115860402584076e-02</leafValues></_>
        <_>
          <internalNodes>
            0 -1 298 2.2747577168047428e-03</internalNodes>
          <leafValues>
            -6.1638388782739639e-02 4.2000618577003479e-01</leafValues></_>
        <_>
          <internalNodes>
            0 -1 324 -1.0600977111607790e-03</internalNodes>
          <leafValues>
            -4.9867892265319824e-01 4.7549936920404434e-02</leafValues></_>
        <_>
          <internalNodes>
            0 -1 470 1.6581757226958871e-03</internalNodes>
          <leafValues>
            -1.1206521838903427e-01 2.0199137926101685e-01</leafValues></_>
        <_>
          <internalNodes>
            0 -1 487 -6.1198422918096185e-04</internalNodes>
          <leafValues>
            -2.6785111427307129e-01 8.2053005695343018e-02</leafValues></_>
        <_>
          <internalNodes>
            0 -1 479 -1.7933223396539688e-02</internalNodes>
          <leafValues>
            2.1960899233818054e-01 -1.0310684889554977e-01</leafValues></_>
        <_>
          <internalNodes>
            0 -1 136 -3.7982611684128642e-04</internalNodes>
          <leafValues>
            1.9477720558643341e-01 -1.2252499908208847e-01</leafValues></_>
        <_>
          <internalNodes>
            0 -1 305 4.1919718496501446e-03</internalNodes>
          <leafValues>
            -6.6760957241058350e-02 3.1427338719367981e-01</leafValues></_>
        <_>
          <internalNodes>
            0 -1 328 3.2850045710802078e-02</internalNodes>
          <leafValues>
            -6.9422677159309387e-02 3.3441355824470520e-01</leafValues></_>
        <_>
          <internalNodes>
            0 -1 250 1.3648804742842913e-03</internalNodes>
          <leafValues>
            7.2665028274059296e-02 -3.0064904689788818e-01</leafValues></_>
        <_>
          <internalNodes>
            0 -1 150 -1.5880067367106676e-03</internalNodes>
          <leafValues>
            -3.6478736996650696e-01 5.5677805095911026e-02</leafValues></_>
        <_>
          <internalNodes>
            0 -1 493 -1.2320352252572775e-03</internalNodes>
          <leafValues>
            2.1542468667030334e-01 -9.6560962498188019e-02</leafValues></_>
        <_>
          <internalNodes>
            0 -1 450 4.3280939280521125e-05</internalNodes>
          <leafValues>
            -1.4069561660289764e-01 1.4801006019115448e-01</leafValues></_>
        <_>
          <internalNodes>
            0 -1 402 -2.0120721310377121e-03</internalNodes>
          <leafValues>
            -3.9011657238006592e-01 5.5659424513578415e-02</leafValues></_>
        <_>
          <internalNodes>
            0 -1 475 2.8209318406879902e-03</internalNodes>
          <leafValues>
            -8.5467450320720673e-02 2.9779139161109924e-01</leafValues></_>
        <_>
          <internalNodes>
            0 -1 90 3.5248350468464196e-04</internalNodes>
          <leafValues>
            7.8275509178638458e-02 -2.5548464059829712e-01</leafValues></_>
        <_>
          <internalNodes>
            0 -1 28 3.4900620579719543e-02</internalNodes>
          <leafValues>
            -5.9676706790924072e-02 3.4988906979560852e-01</leafValues></_>
        <_>
          <internalNodes>
            0 -1 206 -9.6971634775400162e-04</internalNodes>
          <leafValues>
            -4.7913438081741333e-01 4.4721364974975586e-02</leafValues></_>
        <_>
          <internalNodes>
            0 -1 287 2.5185599224641919e-04</internalNodes>
          <leafValues>
            -1.5663945674896240e-01 1.2630006670951843e-01</leafValues></_>
        <_>
          <internalNodes>
            0 -1 129 1.2295246869325638e-01</internalNodes>
          <leafValues>
            3.0608763918280602e-02 -6.0220521688461304e-01</leafValues></_>
        <_>
          <internalNodes>
            0 -1 415 2.6830984279513359e-02</internalNodes>
          <leafValues>
            -3.4888040274381638e-02 6.4815670251846313e-01</leafValues></_>
        <_>
          <internalNodes>
            0 -1 430 -1.1771483113989234e-03</internalNodes>
          <leafValues>
            1.4251829683780670e-01 -1.5462541580200195e-01</leafValues></_>
        <_>
          <internalNodes>
            0 -1 481 -6.4678123453631997e-04</internalNodes>
          <leafValues>
            -3.8977089524269104e-01 6.2152668833732605e-02</leafValues></_>
        <_>
          <internalNodes>
            0 -1 423 -1.4951443881727755e-04</internalNodes>
          <leafValues>
            -1.8463668227195740e-01 1.1123964190483093e-01</leafValues></_>
        <_>
          <internalNodes>
            0 -1 403 2.3823389783501625e-03</internalNodes>
          <leafValues>
            5.8024507015943527e-02 -3.5194325447082520e-01</leafValues></_>
        <_>
          <internalNodes>
            0 -1 477 -4.9968197708949447e-04</internalNodes>
          <leafValues>
            2.6798328757286072e-01 -8.8072948157787323e-02</leafValues></_>
        <_>
          <internalNodes>
            0 -1 350 -2.0450951997190714e-03</internalNodes>
          <leafValues>
            2.4355983734130859e-01 -7.9281598329544067e-02</leafValues></_>
        <_>
          <internalNodes>
            0 -1 230 -9.3868016847409308e-05</internalNodes>
          <leafValues>
            7.8890718519687653e-02 -2.6159641146659851e-01</leafValues></_>
        <_>
          <internalNodes>
            0 -1 449 5.2743474952876568e-04</internalNodes>
          <leafValues>
            7.6055444777011871e-02 -2.6342093944549561e-01</leafValues></_>
        <_>
          <internalNodes>
            0 -1 67 -8.3689177408814430e-03</internalNodes>
          <leafValues>
            3.8791939616203308e-01 -5.6005530059337616e-02</leafValues></_>
        <_>
          <internalNodes>
            0 -1 67 3.3107816707342863e-03</internalNodes>
          <leafValues>
            -8.7784573435783386e-02 2.6071727275848389e-01</leafValues></_>
        <_>
          <internalNodes>
            0 -1 369 4.7010835260152817e-04</internalNodes>
          <leafValues>
            -1.1113230884075165e-01 1.9872450828552246e-01</leafValues></_>
        <_>
          <internalNodes>
            0 -1 476 -3.1637554639019072e-04</internalNodes>
          <leafValues>
            1.5454140305519104e-01 -1.7376226186752319e-01</leafValues></_>
        <_>
          <internalNodes>
            0 -1 174 1.4538252726197243e-02</internalNodes>
          <leafValues>
            -1.4774955809116364e-01 1.5312801301479340e-01</leafValues></_>
        <_>
          <internalNodes>
            0 -1 292 -2.9685858637094498e-02</internalNodes>
          <leafValues>
            -5.8234316110610962e-01 4.0632586926221848e-02</leafValues></_>
        <_>
          <internalNodes>
            0 -1 79 -7.1611335442867130e-05</internalNodes>
          <leafValues>
            -2.0109170675277710e-01 9.6638098359107971e-02</leafValues></_>
        <_>
          <internalNodes>
            0 -1 293 -4.1786096990108490e-03</internalNodes>
          <leafValues>
            2.6865911483764648e-01 -7.5829900801181793e-02</leafValues></_>
        <_>
          <internalNodes>
            0 -1 321 -2.4077069014310837e-02</internalNodes>
          <leafValues>
            -4.6577054262161255e-01 4.2081933468580246e-02</leafValues></_>
        <_>
          <internalNodes>
            0 -1 147 3.0110374093055725e-02</internalNodes>
          <leafValues>
            5.3953658789396286e-02 -3.5616907477378845e-01</leafValues></_>
        <_>
          <internalNodes>
            0 -1 233 3.7187931593507528e-04</internalNodes>
          <leafValues>
            -8.2029022276401520e-02 2.4050313234329224e-01</leafValues></_>
        <_>
          <internalNodes>
            0 -1 241 4.3955573346465826e-04</internalNodes>
          <leafValues>
            4.5078761875629425e-02 -5.7020717859268188e-01</leafValues></_>
        <_>
          <internalNodes>
            0 -1 77 1.1783260561060160e-04</internalNodes>
          <leafValues>
            9.6533462405204773e-02 -2.0929501950740814e-01</leafValues></_>
        <_>
          <internalNodes>
            0 -1 41 -2.9394611716270447e-02</internalNodes>
          <leafValues>
            7.7418881654739380e-01 -2.5938304141163826e-02</leafValues></_>
        <_>
          <internalNodes>
            0 -1 412 4.1822728235274553e-05</internalNodes>
          <leafValues>
            -1.7141142487525940e-01 1.2281395494937897e-01</leafValues></_>
        <_>
          <internalNodes>
            0 -1 241 -9.5348188187927008e-04</internalNodes>
          <leafValues>
            -8.5382384061813354e-01 2.2298544645309448e-02</leafValues></_>
        <_>
          <internalNodes>
            0 -1 322 7.7709706965833902e-04</internalNodes>
          <leafValues>
            -1.0440422594547272e-01 1.9296109676361084e-01</leafValues></_>
        <_>
          <internalNodes>
            0 -1 472 -3.1609268626198173e-04</internalNodes>
          <leafValues>
            -2.8086760640144348e-01 7.3427833616733551e-02</leafValues></_>
        <_>
          <internalNodes>
            0 -1 346 1.3753572711721063e-03</internalNodes>
          <leafValues>
            -7.1024455130100250e-02 2.9404503107070923e-01</leafValues></_></weakClassifiers></_>
    <!-- stage 8 -->
    <_>
      <maxWeakCount>100</maxWeakCount>
      <stageThreshold>-1.5907120704650879e+00</stageThreshold>
      <weakClassifiers>
        <_>
          <internalNodes>
            0 -1 195 -1.8273685127496719e-02</internalNodes>
          <leafValues>
            3.8576108217239380e-01 -4.3326091766357422e-01</leafValues></_>
        <_>
          <internalNodes>
            0 -1 438 -5.2230611443519592e-02</internalNodes>
          <leafValues>
            3.7969580292701721e-01 -2.1707883477210999e-01</leafValues></_>
        <_>
          <internalNodes>
            0 -1 160 -9.9041331559419632e-03</internalNodes>
          <leafValues>
            -4.3796038627624512e-01 1.1745644360780716e-01</leafValues></_>
        <_>
          <internalNodes>
            0 -1 34 -1.1136390268802643e-01</internalNodes>
          <leafValues>
